[{"sizes": [784, 15, 10], "biases": [[[2.237117074173852], [-6.269614971354124], [6.911277744095886], [-2.413819593066335], [6.241785142514235], [1.3875390023048377], [-7.8256863816984135], [4.68960649888007], [-7.615856908124916], [-5.013942200959366], [7.034182522136366], [6.133206231148967], [3.0579747234362165], [-0.6085510880327766], [18.13036883460283]], [[-1.4234760522449204], [-2.0247923066875066], [-4.068083261076195], [-3.440404913690108], [-1.6198405544546144], [-3.673415852751521], [-2.610934046205673], [0.4755137873886314], [-4.247778353137103], [-1.0488360304333502]]], "weights": [[[0.204819973597218, 1.3220334584140399, -0.4694598241192928, 1.1803530712283818, 1.049002590282223, 2.3925129619915673, 0.30490025724354114, -1.9089268352991686, 1.899610838597101, -0.5377313852307276, 0.6332050881566673, -0.6081140026998901, 1.0452033324134302, 0.26202824452042084, -1.9935039369784247, 0.49134068522386254, -1.5474851610429075, -0.7909487033818275, 0.5226424429562871, 1.4968535549126973, 0.7005013553847301, 0.5252863410307251, -0.18341474877366515, 1.3676054980724577, -2.546129461546248, 0.014847740187076719, 0.025998920982910262, -1.305957330367861, 0.04486529807319008, 1.7101483732390141, 0.294743367130155, -1.3889125392864958, -0.6189735622026371, -0.18570362056555675, -0.38521757451453464, 0.0904711739460545, 1.6462457251614544, 0.5390596996937153, 0.4704103522029401, 1.4035531205603036, 0.42063203081837497, -1.2506621138387128, 1.485405658482139, 0.9427253011648395, 0.9416213186338317, 0.6380738843768963, 0.9867663054302738, 1.5649765009190202, 0.10501014232359411, -0.9912858318233231, -1.900946001971822, 0.7735083168231672, 0.4615518898595724, 1.1717681957080714, 1.0709346393322192, -1.6754087274882061, -1.4124091180596108, 1.1425742651912598, -1.5191792530702026, -0.08230176927743091, -0.21388904728715183, 0.38390015971357916, 1.128546766196287, -0.2752669635390281, 0.7181295626943732, 0.2153920880571341, 1.119941451582304, 3.4960335622147105, 4.19588796352576, 6.957689937436573, 3.5102240603242634, 5.325743815093575, 3.5383745120644092, 3.3073007111526933, 3.4049651847449005, 3.150008707644046, 1.8305084101979168, -0.9071952923871563, 0.743873356828657, 0.16474284310263085, -0.3710174712124137, 1.1504167302396668, -0.40308820282551167, 0.31840109875583633, -0.4719317135504329, 0.950611135634437, -0.1565091443887213, 1.5460065387880337, 0.1601945584172306, -0.599873343297968, 1.1775652533734295, 1.2064644345099256, 0.6734735839039422, 0.5890647318556379, 1.961605824470975, 4.449813568423006, 3.340913170255528, 5.350564199654944, 7.313055766401721, 6.302184888978162, 9.838320797862606, 8.219018699057813, 8.603895599487538, 6.406497925753294, 5.919795267665233, 3.939937127275564, 4.098548143135585, -0.5937579667242796, 2.12521482800405, -0.9929019382640143, -0.7420167927456394, 0.9287115827900939, 2.000963701756514, -1.3816034264971382, -0.6676068102887586, -1.180549539994069, -0.17863020442796915, -0.564446824135583, -1.8187771402738726, 0.9236536636728822, 0.2276393259236607, 1.6365824235115862, 2.0190802163164765, -0.6236689293297389, -0.6604801815984712, 1.7499011951951988, 1.5711457541119302, 3.0419415800707412, 3.250401865686435, 4.547746949452755, 6.099760917176014, 6.0132348002070195, 6.904583002968572, 3.2850742756488103, 4.14687429819354, 0.9720467440894546, -0.8097102137398814, -0.24524273385300543, -0.18646895274134265, -1.5179399952209456, -0.1043211778881351, -0.069540730711837, 0.46043499146691913, -1.33348748896956, 0.4813762123248293, -1.2864636083367735, -1.4039695917818187, -0.6096098129087423, -1.556580644513292, -1.7190928897252513, -3.543420509500984, -5.869480938181033, -6.045547343140431, -6.6028061726385605, -7.0306009271080585, -6.469926969659568, -7.28222688218368, -8.023976045432521, -4.30596061120778, -2.854101944167167, -0.33136108814123977, -0.5742515466132726, -3.0097110664216897, -1.1532009991904788, -0.8135727540817272, -0.7163186324777086, -0.16912839813785702, 1.8193010898369362, -0.7739967859571106, 0.1835560159688391, 0.21633786870507973, 0.6896825147257362, -1.9052883713887998, -1.793809225214904, -1.7103899953410966, -2.0398400508214416, -1.6654958715038075, -4.189568229252209, -6.6329603844302305, -8.378437372112545, -10.081138988174521, -9.868672641143515, -9.010794999650914, -10.427626741931912, -11.183144837571783, -14.167688864115078, -13.217860482276222, -9.798215041004612, -10.241769360302017, -7.21176104630527, -5.586571721010854, -2.8626360973351637, -1.689404295827852, 1.3919405955475472, -0.12162969385132376, -0.4598799911563663, 0.25720324963839136, -1.6317998836258099, -0.10243646152587217, -0.7355020869466922, -0.6479757796659414, -1.0934684677458282, -3.1789413711016996, -1.6403202436867317, -1.750469135011662, -3.4199302207632583, -1.413416695874533, -2.040870245895554, -2.5874168956965127, -0.2782133446492036, 0.9620888487554179, 0.7832191225590677, -5.1432135575007605, -10.74697110278562, -14.70719105914316, -13.681607584474628, -10.217049076135197, -9.304271557785189, -8.673253511219745, -2.922890412256185, 0.21648943476891172, 1.6071401477584464, -0.07725601943073822, -1.326904743423989, 1.2562415810140604, -2.55913003437151, 0.018523712322436724, 1.8474250798100387, -0.3464259722590036, -1.3133576312830648, -1.190754082860408, 0.6845067017777695, 0.035107196558521916, 0.9407413254335251, -0.5639644495870554, 0.911387364841963, 4.102262201844151, 7.476810099421047, 11.913668639052538, 10.201336269912144, -0.5261708275610839, -8.583019589007883, -13.488899135284449, -16.170897198785696, -12.071979751838791, -10.611634258931469, -6.3532642290298265, -4.114055859689262, -0.017856611170828877, 0.008570757578457629, -0.2055766155846201, 1.293081911982222, 1.2742581066668257, -0.6121796721705383, 0.32032813591913106, 0.5053182793114414, 1.4702345602674411, -0.036410668807456234, -0.6190910511024001, 2.971330182838287, 2.9753747746102595, 2.8622650604354667, 2.678513321685489, 4.0326605172011885, 10.148599694688789, 14.194706415908087, 18.819459605321782, 11.566177668115483, -1.1887264420262098, -11.887410104018112, -16.44515086056044, -17.34265375550496, -15.47447436972824, -9.9497274586765, -6.3861354808820066, -2.3313583272831653, 1.7039168766114734, 1.5278937156964896, -0.4509604467399269, 1.3516360810923178, 0.11529353907263719, -0.06418877412184364, 2.1275279772370626, 1.3002557933910404, 1.4356912625788643, 1.3567571448535523, 2.0458484329387856, 2.051405234805831, 6.738928585720406, 4.677872091477467, 5.907320477704643, 3.625792563122818, 8.979479984842584, 16.084217290847807, 15.290932467007885, 6.347204631927168, -7.151876514324668, -13.494470896796784, -15.651434375856802, -15.641221143956987, -15.7657342488443, -9.419082328039858, -6.154685126010062, -0.053921934363067706, 1.1972055091961853, -0.6450912080417156, -1.870523888939139, 0.6335973716528498, 1.363785668768988, -0.5724833665290413, 0.6758846104558961, 1.2088667342099595, 2.552470860367203, -0.7825476963326574, 0.93597712400762, 0.7431895289652533, 4.821748954494656, 5.761811217439235, 3.3987475817203143, 2.6954627424187816, 8.467357453375834, 13.194030260869846, 10.56506734217546, 0.862702694501828, -9.370432151921737, -11.631127497443671, -12.706375351911621, -12.275004895431902, -9.77836868486525, -5.293168986229889, -2.537851448663982, 1.8598493244019354, -0.9167302413226153, -1.3419579522399165, 1.7997790376241964, 0.6780423673857504, -0.7205851654443733, -0.9252661134766554, 1.4728425543111865, -0.8786201803523893, -0.34152412321649617, 1.9513390506381363, 0.680552059954913, -0.0045312268272061544, 2.77029855522656, 1.1014676109696915, 0.8835939906606813, 2.685066221546729, 3.9595651341742095, 3.721642266250007, 1.4786227786819635, -1.9189554168078888, -5.505940916109635, -5.266473386404219, -6.50596951750353, -7.80376379391802, -3.4353520674837354, 2.103109211012213, 3.4857978481070515, 2.235471882154434, 0.53910390915566, 0.5813411941424489, 1.0647302962868368, -0.23801670111150214, 0.2872598004434372, 0.6022003895494263, -0.6899643566419273, -0.7465816979546858, -0.7803541665121486, -2.403239269523551, -1.8047110021976578, -4.3655594971057035, -2.614738507826625, 0.2484524993951936, -1.8690182237275192, 0.5657141790998852, -3.5259292776564735, -0.6293706826236806, -0.6961622241082593, -0.16109549590757244, -1.0988168137265386, -4.088065903025411, -4.527356274276702, -4.926380426345668, 0.6969472953203614, 3.6510950688132637, 5.313265737627928, 4.896378001341388, 4.416314384918566, -0.1705394360538312, -2.8241350413494835, -1.4797408613937466, -0.22486082618632744, -1.2641255298859158, -1.6531988482175148, 0.21431402939096106, -1.6709422229732873, -2.7547725770562415, -7.840459428537686, -8.3870578639333, -6.371060467476816, -3.1462854448780875, -0.6318176038853284, -4.871634340045974, -7.548874728584769, -5.248142460009377, 0.49998210323142, 1.916039961027723, 0.30999792630745643, -3.963761813622507, -5.836703829242928, -5.780857468746548, 0.32803090773634264, 4.60793804881961, 8.930397043441337, 5.0298375233632076, 3.7787457816009944, 2.217662953690931, 0.7345433495103092, 0.7043028302206972, 0.041994324837198206, -0.527727529446556, 0.7804359593179904, -1.0696045863099053, -2.7070573097295125, -8.735305493809753, -10.244730729635986, -13.09800752853089, -9.854816670601126, -7.682478039280232, -6.189782988832979, -8.7552291734103, -11.180373746718137, -8.291292552288375, -3.2121771183757204, -1.9002143378800191, -8.09475359190233, -11.171707975358354, -8.244567368172651, -6.311549953565857, 2.003185384100615, 5.469314819348422, 6.049350464719015, 6.973483900078802, 3.9480575815339947, 0.8971661372038096, -1.3280457504193974, -1.4387558471601185, -0.037896807543245495, 0.8433840402058965, -0.8482346183780413, -0.7532843867346319, -2.6234316104800466, -8.062217549088952, -11.569302638257833, -14.45484404119924, -10.489836317797897, -9.19521466693489, -10.555154817581966, -9.570570222748492, -13.130554277828185, -10.212566607209979, -6.105532453658894, -11.18448243938188, -13.650501372794336, -12.831054078952654, -6.925752375970169, -1.3297134535926185, 2.521379602167685, 5.072595318174108, 3.692425447728817, 3.6203895550374563, 2.8976818761953735, 0.9644827411004541, -0.12663896625980522, -0.5736588589325395, -0.7844213764342604, -1.8752257156622494, -0.013952229873434543, 0.8115246401875192, -3.1278527656065553, -7.950542576024087, -11.582795854184328, -12.165999595329813, -10.050272468429435, -7.071566326240105, -5.7163698407673404, -6.34293621180531, -7.056528262863669, -7.608028204276969, -5.670162629368245, -10.342609107849654, -11.29112247066009, -7.25618414145165, -0.9606599569526117, 3.166019951031398, 4.633056390296653, 3.850015845821912, 4.956714957334865, 2.8054707780481984, 0.38138936663201956, -1.4436855866480596, -1.1737224944753404, 1.497776167584468, 1.495538683075866, 0.09562367785689244, 1.2009871638335583, -0.2611573748908019, -2.4381048446069054, -5.650176907834238, -7.492711675654396, -8.197997676091388, -7.3239350607100615, -2.4919792723922685, 1.9561371986659994, 8.404104263523127, 7.151019307095082, 4.6490535369155985, 2.704564484806814, -1.3689916300804914, -1.9511085848474172, 0.1556984634160963, 3.3895943093760548, 1.1485131415551209, 3.5189831771192397, 4.872531596182197, 1.3390636397006606, -0.13906655366160292, -1.3013401378118734, -1.9166119202837733, -0.6505079097282157, 2.7050105274396725, -0.21798550767626262, 2.463802921248838, 0.9741135860499319, 1.9794705274935096, -0.901519331093496, -3.0261056009550695, -5.9640903047584315, -7.573570154204275, -2.0817041368607376, 3.1943296380581345, 12.45551228128471, 16.10204702386067, 16.88546612353195, 13.808608367491646, 9.727928864741488, 7.60069346043156, 5.5370396044251775, 4.677437727847515, 2.903697640593093, 0.48073320984251716, 0.18911942540497798, -1.146124427023811, -0.9724308968619577, -2.059290495096412, -1.191189381063085, -2.3902600107493654, 0.5564691359296399, -0.809704262316724, -2.034741259885686, 0.19624693963963596, -0.45858019313491255, -2.0453297211298755, -0.7839193885528585, -4.240604562497182, -3.386486119503918, -3.9874340124302003, -1.0717455396740387, 3.6442083850409284, 12.556055710424085, 18.402153385353245, 20.59588350938941, 17.53758035721526, 17.71569715186171, 14.730352504837075, 9.795763724298864, 4.524443784989587, -0.5751477041269955, -2.769628376425483, -5.034675914874156, -3.919700333741249, -3.5788173936653407, -4.360314848512019, -3.8763073012556424, -0.623108101384245, 0.11203479545878701, -0.6238162680263306, 0.3799874109745268, -0.3646270024982354, -0.6080304936004715, 0.060969418224754934, -2.0454134241448068, -3.4795749533694185, -3.4788888292817326, -4.812714506629657, -3.8582179680470743, -0.5440882698817032, 5.219453733815442, 12.506685786284034, 12.05425916890719, 13.493928453516999, 12.753072119345049, 9.983307248786081, 6.612153706594785, -0.8151583176088787, -4.620816324246366, -7.569068375339304, -8.517053822343017, -5.093165541350585, -4.086295420122909, -0.35674412175311376, -0.08518658437290899, -0.4988328806787751, -0.12353752435133121, -0.5578148253430438, 1.1265622134333162, 0.3913882255131516, 0.06252948294991281, 1.2248306644927305, -1.7378908932655144, -2.0090570677582638, -2.5292559093979707, -2.5072377116820737, -1.503265792003918, 0.005441088334436444, -1.856022749294713, -4.1951233322510015, -2.8435107894481266, -5.2289572555522925, -0.7494398505325036, -0.3008526465832789, -4.9310706696806195, -7.536980057880512, -10.75746117910865, -10.448256679688686, -6.3724048759856435, -4.557128424896987, -2.1180044481836022, -0.43682404420865134, -1.9358039047568227, 1.584273372532396, 1.669512845529434, 0.2170094535782843, -0.6179333736389547, 1.5748923425179087, 0.19861685320732067, 0.006280836899716753, -0.40879655006846927, 1.040482132990444, -0.6860931034022423, 0.01926523344616078, 0.08236801983013556, 0.0663590081223976, -1.8590192981880702, -7.508191051536136, -10.34556690457702, -9.890186746038909, -8.515319921254672, -8.298250877837331, -6.683290449319356, -9.313713833176127, -8.690735673182779, -5.894423057384405, -6.337014147244472, -2.1588859941744847, -2.2855016338609095, -1.5557310954631172, -1.5195751087810148, 0.04189810794687939, 2.1056463968947146, -1.7903244598671286, 0.7924705635397331, -0.36097803448635635, -0.7926492177108404, -0.8739032632346693, -0.7514180123277099, 0.44459818431600756, 1.1486755128068915, 2.1317227225490964, 0.8224855164786158, 2.187296975753851, 2.294386877853313, -1.2183343959274757, -0.21501208270791816, -3.56532789527846, -2.3095411138808055, -3.2976567542892052, -0.7215498943388992, -1.049821985780578, -2.1335178313355048, -3.103384744803865, -1.5707809993246233, -0.5042762910787847, -0.5062310570545697, 1.267976540342452, -2.01767053689604, 1.2199840774156256, -1.246593730198688, 0.02317266375556976, -1.2629526204275185, -0.6189062900505844, 0.9380798489734796, 0.5222538841373588, 0.0830415042002091, 1.6908257693307651, 1.066196703706955, 1.6931873143892497, 3.7127249402093208, 5.874976179624235, 5.528019257854034, 5.2930051999027965, 5.544532777620822, 4.461857945393785, 4.599214172542949, 4.147153741956973, 3.587458627454169, 3.4229344278800755, 2.940054460334941, 0.22266706820210944, -0.8138433353284902, 1.021699423658127, 1.4791340071497001, 0.546382561841521, -0.7706302525784985, -0.666421507630888, -0.534508019012459, -0.2146745910253492, -1.4405911516920902, -1.2654816223794925, 0.4888291178133456, -2.7705998716797375, -0.8245123747684879, -0.6665693582594684, 0.07716223751767716, 0.9039140371471123, 2.9250228827585487, 2.361943567890891, 3.3954073404526635, 1.8870824608835748, 4.123794489110247, 2.8636982753708535, 3.4560055307629964, 2.45045390045798, 4.156203149258541, 0.5632134234903224, 1.6760928050986488, 1.9937490619153024, -0.07993363276955429, -0.4304332206176745, -0.08418488091999331, 0.471166203173264, -1.501409345001817, 0.9331801857335164, -1.476880455591118, 0.04100816337133378, 0.7260471541626171, -2.1311959424721993, -0.9136108700637896, 0.5084274537540481, -0.36159664976407874, 0.14061815839823544, -1.0227106811246416, -0.9397103011521983, 0.4675140429449408, 0.06321373315988091, -0.46552998720967187, 1.1744303093121196, -1.6105491045353477, -0.2682132997019616, 0.07329782518649078, 1.22385161726407, 1.7974355377413378, 0.02838252696525701, -0.3883165865224256, -1.535671935522951, -0.08913073943516772, -0.11221315727906074, -0.1087664575654792, -1.226039927207784, 0.2551674725555848, -1.881200309636833, -1.1558030616942208, 0.16130362364253503], [-0.18910615334706876, 0.9365000565853568, 0.07609874983613243, 0.28344747179596624, 0.38434046034023195, 0.3720741078273574, -1.5540157768259273, -1.319498516568353, -1.175349024272373, 0.19909040641123613, 0.1773189843096341, 0.32368717740282105, -0.14572572452315533, 0.5808215407592356, 1.7100620664807793, 0.19311847447072297, -0.6682082487574613, -0.22536462029526205, 0.650411975929977, 0.742930514247731, -0.14411335210181095, 0.2319574636838967, -1.1243926101974846, -1.2663919285955134, -0.7304533840101451, 0.6794717593627404, 0.5988301410906514, 1.23470771255784, -0.37428757141347513, 0.7848774280102839, -0.26906534574870306, 0.8464400607075654, -0.8579742426631708, -1.0544056391939773, -1.0306256237955627, -0.07935443781098402, 0.4206830629721087, -0.43746736639955897, 0.30429101667555797, 1.3791915385736968, -0.7954219713381834, -0.513521290234203, 1.0079018331965934, -0.6596387809418123, 0.9172697650392987, -0.8785064734356315, -1.1346721484583862, -1.8161105697272053, -0.7474533212943522, -1.1910287646027984, 0.0379497360568172, 0.6500271683259501, -0.8130788893330613, 1.2020247545628542, -1.5126124211869787, -0.7948327224112779, -0.019424845326724113, 0.9244786906667338, 1.041551269225793, 1.1748365764976185, -0.24362031949014684, 1.1662104078310627, -1.334875336509174, -0.20536345991453678, -0.1577714877152577, -0.7719012382994724, 0.08375097014998985, 0.2178786417432674, -1.7775131348913216, -0.7516077175877633, -0.7380102904358291, -0.07607450709309305, 0.2852149348086429, 0.24680335310738594, 0.5823905850276099, -1.564298695971016, 1.0753785544601242, -0.08917029251476119, -0.7000885138423766, 0.01858261807306431, 0.7580527142499497, -0.8990631435786924, -0.18249578643113548, -0.5642363982052969, -1.241455684706308, 0.8849972937656034, 1.3243096922668045, 0.2797272199083588, 1.627100911592913, -1.0174453167446353, -0.32001428307684715, -0.8046376850437398, -0.6746422791312835, 0.09003822741105869, -0.7660511488490557, -0.012558631921955304, -1.5645858726753397, -3.0620150604826977, 0.48134804282071614, 0.14939296770236468, -1.1927171104171215, 0.1056185160883928, 1.3239956948104463, 0.4104003300829686, -1.5840460586908809, -1.270807714582823, -0.6067083794053205, -0.29976554554591983, 0.2899713647105461, 0.37874355771509294, -1.497925490565502, -0.18758076381143532, -0.6435772631709193, -1.1742485867538794, 1.3677737434821429, 0.3009578480679393, 0.5749214034292623, 0.33117502487063377, 0.9553515726723929, 0.5398643630079984, 1.279483436254917, -0.7582015390198555, -0.7422648467812559, -0.7007960613000216, -1.6412585420741364, -2.8138616161076557, 0.28194160181064815, 1.5647649900700908, -0.16126857588179774, -0.3687540334957512, 0.7248339982207476, -1.1271909599172536, -1.4171310680265758, -1.2233070667743402, -0.7577208598067234, 0.24982121642966884, -0.7597764737007221, 0.3706140167420006, -0.8487770229612301, -0.3498891624410594, 1.359593591278348, 0.40457492109395754, -1.247224335171134, -0.3896777263743278, 1.6991195615462917, -1.0202903065621565, -0.14579921596243217, 2.115101984605171, 0.6002891565307402, 1.779455397297669, 2.5755193202785853, 4.512828056569142, 5.570692948107412, 5.652559938075927, 7.13821693600888, 8.516231649905974, 11.382118825700614, 9.66647090120725, 6.234098318089644, 3.7728084565003353, 0.16720016379504832, 1.716469190994709, 1.8584466969853286, 3.1373925636249202, 1.969789537999842, 0.7193538176569257, -0.9529568251692905, -0.10725185066832467, 0.735720132064828, -0.36254163063341155, 1.3282150770924768, 0.47928853880009287, -0.3579603982419601, 1.2067109192283143, -0.7956216853740243, 1.7361275176199022, 1.0830851617449349, 4.280421248568742, 8.58749175561034, 8.290574775821458, 8.013395680925093, 5.45891044766571, 2.2145050351327193, 4.627485351071217, 5.5439291629165215, 5.032351147062028, 3.5983843498090065, 4.556245228754977, 3.908916493219898, 6.704620227068936, 7.847521373236273, 8.768279249518724, 5.022812988445085, 2.0177462377645674, 1.498235857018899, -1.5267443737049604, 0.13191778597296752, 0.22799977913380923, -0.15428888558353243, -1.282674146510785, -0.13420775409222266, -1.2048720910675843, 1.6058488707086054, 2.3566062943034094, 5.844201669489623, 7.002469935043483, 8.358674326304518, 6.140808386042489, 2.819354728482737, -1.3695652605110982, -5.263229214180003, -6.949870513230879, -3.702393989432628, -1.6254758744612465, -0.719743031008876, 1.3086042674747758, 4.2759117862402585, 9.46603693676042, 9.601175709190771, 9.297359350147874, 7.513785227677471, 1.697898464713982, 0.474391328866533, 0.4034858690815798, 0.581300550265241, -1.918951517817304, -0.29612707838424585, 0.17598084218988108, -1.400173319438928, -1.280974840501769, 1.4036960441415052, 2.072976285103576, 4.016300137987545, 6.110986017679773, 5.1881887655508985, 3.0579104730937985, -2.3135762916420832, -4.7806098762291604, -8.988304676868337, -11.490171355728137, -9.90888593654478, -8.097879915934858, -6.200390999771925, -0.38028349189067734, 4.874224966082429, 8.161224515650261, 11.287142273769959, 7.0379427217203965, 5.832807844821609, 0.9736977551094781, 0.4028978263899929, -1.686358068206397, 2.557749329469426, -0.10861667846511143, 0.2648289304082155, -1.2365496395747466, -0.17839627067072641, 0.42273510042485163, 0.9581898001746675, 4.26290019588523, 3.183602837663075, 2.510071165664, 3.7791241299299965, 2.5708888534853913, -0.6100095666992333, -7.593499558504454, -13.729100466913343, -17.054244991001145, -13.008792618991341, -10.663196432271345, -6.2535496794097645, -0.6987280586963602, 3.0177167907270803, 5.722722060259221, 5.773334849101625, 7.184709912024372, 4.516841096470704, 2.166228289290905, 0.27798207605846037, -1.438599333792943, 0.5822697027695719, -0.021054448421069696, -0.7960670915014546, -0.3933366256055978, -3.32682649327614, -1.2755451272849905, 0.1969863272014564, 1.5464799902741428, 3.747864277008071, 5.070599263955563, 5.073946345617477, 6.427710489675945, 4.643916549581219, -5.129611046269248, -13.327761649964266, -18.2629223603671, -14.692911212601475, -11.071859177671309, -7.395142382932155, -2.3385048425562953, 1.1879337589671213, 1.72066025037496, 1.788653474276916, 0.06068648617850927, 2.799971777112773, -1.1330990031415418, 1.4117011885569084, 0.8205445254793178, 1.2056680820000802, -1.7673333006594192, -0.9510722604730183, 0.9631698098820373, -0.7704174177636917, -0.9882687119952028, 2.036415135633532, 2.5776177293890137, 4.517511559876365, 4.297323228060014, 8.068116118173215, 13.282583934946025, 11.936387490135477, 0.9659450919297171, -11.634995179187095, -14.875310929464703, -9.549493456080514, -5.780840853556057, -4.133592718711627, -1.960728208341649, -1.7981687782328923, 0.18529080767548295, 0.9633715269928139, -0.6045408113802102, 1.3138940596927113, -0.6282230656339155, 0.8535251284208581, -0.7127060893188315, 0.014205591019692777, -0.3289123756809585, 0.16578366134688918, -2.2332758838404976, -1.0547191361891006, -2.8659616125528653, -0.05425774903146497, 0.8202443919061155, 4.091759629474548, 8.01392643576469, 14.715944208863245, 18.53339143622559, 18.04363044982295, 4.119990256824793, -8.510976175817607, -6.941675544782339, -0.5304364011766738, -0.9686707682578488, -2.3203822703244508, -2.1681062256953467, -0.8311204779362145, -1.7947865270070271, -0.8955431501392841, -0.8077634341492723, 1.1733709744879623, 1.004045355255315, 0.12449688005329765, -0.36793749602333276, -0.04587346411794927, 0.960277107036183, 1.8546996072152055, -1.041668028104401, 1.188126875787423, -1.6712718476933506, 4.072050062075729, 1.4417443540223724, 5.373182624715833, 7.725572287118307, 14.665032749727361, 21.50305260737023, 18.884044293127385, 5.04544133667229, -3.4745627306700024, -2.721832347398956, 1.9842340901411477, 2.873203343659635, -1.0536169757393765, -2.0694152757787068, 0.6687759610946908, 1.3385288298282827, -0.6153180945388619, 2.3200195634278815, -0.670296181650924, 1.7889572332304717, -0.5502422199647992, 0.6594254321315524, -1.5132459628458599, -1.305981042583548, 0.3427139693531301, 0.5573618907022607, -0.5986985241971131, 0.8081968659842151, 2.627034946285946, 5.114245262847788, 3.1545600592204512, 6.745977300673431, 15.805007278344577, 19.09298231529385, 16.626753772723053, 3.4485144918118316, -0.30226655192514623, 0.5749366400289585, 4.524832571320513, 2.349643283091932, -1.1839090657153675, 1.025031532469422, 1.3802420627985428, 0.0694644763285032, 0.3339950301638401, 2.5295695957683235, 0.5600102521038708, -0.5962061757758221, -1.230884591574864, -1.8470925940087668, -1.6642424929450854, -0.04457967307175035, 0.8720431095366857, -0.16345275119078073, -0.03489504913581146, 0.9915707270940095, 4.615573468903918, 5.214841706048907, 7.048643090576799, 9.415170702919536, 12.50035049430265, 14.491317125207088, 9.829951014872108, 2.726105152109944, -1.1429617185376697, 2.845281371789325, 3.421818725484502, 2.104143468051523, 2.4198059214431216, 1.5974795420184273, 3.1834722231380383, 1.668153958700508, 2.874629895036859, 2.042667640344232, 0.49692890466419437, -1.360670351697776, -1.0328993803014554, -0.045277112612716046, -0.10951246228019204, 0.3817159353019825, -1.3762509750694378, 2.0596518657064755, -0.3446528625838484, 3.1693123297810826, 2.9797813020030373, 6.193838965067633, 6.559590223034393, 5.39450863272132, 9.503291760854285, 7.124963884234534, 8.027681894165486, -1.6012818974713667, -4.770714822546229, -1.2892091277499893, 3.3136317000519013, 3.2231735076927337, 5.890366355530705, 7.126635891334767, 5.001326301794437, 2.1198140222482484, 1.9303972092767145, 2.6941533722163578, 0.7519765716140567, -0.4767411101115142, -1.0432410028753423, 0.3444464861901274, 0.262408904444695, 0.08939177000750798, -1.7575646091902453, 0.04576758564659417, -1.2628262187385348, 1.2612229378146622, 3.900069295366948, 3.670502003101947, 5.39856627299214, 5.585137620348719, 3.420600245922407, 3.125588597257214, 0.7974237760828533, -5.023510288084802, -6.4573845455559065, -4.179112563837545, 3.788638956221494, 7.083000817012477, 8.600935163412554, 6.647061842723065, 6.334764712277491, 3.2243975070592024, 3.1392467459240847, 3.33921980874001, 0.3838863778144946, -0.7005056801333421, -0.27260237219550476, 0.2684407968758184, -0.849760972587218, -0.9207435803524198, 1.4669618559117708, 0.9997442985128084, -0.7625653015105004, 1.7628761560389024, 4.564542975537438, 3.8670474981909932, 6.095205886843705, 5.776247737963754, 3.610753324985909, -0.21121747953039896, -2.1187572970933664, -7.903997097537489, -7.436575011966079, -4.163483681308887, 3.9947773691284665, 4.870072591780932, 7.859080393965696, 8.256068881604827, 5.084184606090704, 5.365217981817016, 3.0673301800107446, 2.1220817480200096, 0.38519253531354297, 1.3103314710886274, 1.3073742635092878, -0.6801515427342424, 1.0733823911425018, 0.5855037824866677, 0.1265953227793186, 1.1010877991047177, -1.9923490507190869, 3.595788722301795, 3.994576554993351, 7.584300123837078, 6.481206817644449, 5.011396681028617, 3.5239550916507145, -1.4779293363005284, -4.494250977154948, -7.432376507889661, -7.087168623700756, -2.661991477047619, 2.491897781381142, 7.501960731012315, 6.575275539859758, 8.642883123019159, 7.201407737642026, 4.965999688204034, 2.095560162790865, 1.6303382851931743, 1.0221957025302746, 0.6862260601501958, -0.27681897412978, 1.022875870414899, -2.1766400348089165, -0.5810035762009271, 1.0623008090082788, -1.2451338634371087, 0.13938158945136359, 2.093408063740798, 5.916244682253747, 6.7064000555125505, 5.698170384355439, 5.264364962633416, 3.171859605446745, 1.5113903681367287, 0.6905670422271212, -1.9789417485180818, -4.765008945868767, 1.34865671774082, 3.8167939420096717, 5.357408419774756, 6.39397002794176, 7.620118573238181, 7.432196741384021, 3.4771069111761124, 2.086359587427526, 1.4366606380536067, -0.7397734841989307, -1.208863461886977, 0.405623372593877, 1.1101062159398447, -0.12014765543666701, 0.17558055043118434, -1.202823899823044, 1.2228083222694375, 0.5072855297229912, 1.3674254333768336, 3.925125890449194, 4.404561285302692, 5.274743193782472, 2.090187858796253, 5.03717048273528, 6.791632313674812, 6.193357336754901, 4.813743521241972, 3.0743967913991948, 0.6958949374841601, 3.6227912111686105, 6.21554255177917, 9.216016916163166, 8.622429314666029, 5.164776745982004, 4.407913920845363, 2.3303288632224315, 2.4555716075490936, -0.3993764707423543, -1.390585245961145, 0.7219039548572838, -0.9210551606831704, 0.6982660258609299, 0.5180938175246098, 0.06113724508256019, -1.0356525964514365, -1.2264536959648176, -1.1858353670794741, 1.626721149758701, 0.343865204757356, 3.2834547868594, 4.475116523780143, 5.933668486453075, 8.715526917628344, 12.240383805719768, 11.725988534543246, 8.473520360414923, 6.970470419920668, 5.143631924313964, 5.989510884524858, 8.165762970413384, 5.037291020356159, 3.439574184789755, 1.513825408845648, 0.47768531641042694, -2.068535429493241, 0.7582347550433121, -0.7510674379299045, 0.11944413627073915, -0.9834411855708787, 0.001821152768629934, -1.5404070581902036, 0.21136420525564817, 1.2303582126935246, -0.21411826866037895, -0.5852278023562513, -2.356122712838039, -3.1545608461429193, -2.194415570570179, 1.9400852857186848, 2.2729270072413774, 8.096664713524545, 11.953214405574913, 10.989422115992538, 11.018156872769474, 5.492195893713903, 4.7597126253071025, 2.0965362276498607, 3.4830434652621465, 3.01086958959406, 1.0232800972868816, 0.1830818516382396, 0.21964989494366588, 1.464771446363365, 0.8713746019198905, -0.3270122121651167, 0.7571756789501142, 2.12132035709567, 0.22209385678674595, -1.002388025505716, -1.3247020832398158, 0.5218839867132303, 0.4623563777076747, -0.5440462610991471, 0.3875652789656866, 0.2111874787710532, 2.9908307991597263, -0.2845220267534362, 1.3778962735773215, 0.4110389077710007, 5.262107101314322, 5.26608418383974, 4.31427063856981, 1.826869503128361, -0.40371314124109925, -1.785529938294111, -1.2443583291527456, 0.1450307356133952, -1.0063890968043034, -0.17522503501582393, -0.03991191730703482, 0.30396686116556637, -0.2509102182140758, -2.8791596291019466, 1.3104191275041586, 0.5069090371106624, 0.9167415933450528, 0.36976604874403135, 0.21555950846973437, -0.5856346767252277, 0.7642510530823078, -0.21521492046129378, -1.918317588209519, -1.2718458358991993, -2.4919126706733006, -5.334397162758086, -5.54874646114504, -6.56795935777361, -6.595444681899247, -6.722097629301481, -7.148053914051053, -4.985784962622814, -8.68022451520102, -7.148531147151678, -5.704207369898871, -2.123816014966455, -2.298296052404499, -1.8726523017566192, 1.653559792610384, -0.5022266456015493, -0.8606761147104572, -0.08769399249795307, -0.06322618433570382, -0.03901049739217376, -0.9049448819496005, -0.27513731472580527, -0.7556954219636297, 0.21437507669967398, -1.1838616703189724, 0.3584700188693932, -1.0376716508460009, -0.2375262660100849, -3.097614047157619, -1.4985958968988065, -0.28576940776670423, -2.5845398574830414, -5.352521356726226, -3.0263691856035897, -3.8531378778371175, -5.291869096369003, -3.925438572124248, 0.4091923543341035, -1.2709711068880205, -2.5971311278227383, -2.5735690106372893, 1.0312611683059272, 0.5166042510852555, -0.1332843229386449, -0.05403383684411901, -0.9134319125634549, 0.3030355648154554, 0.7204206171564141, 0.5522361859187715, 1.721643341264488, 1.8878507841561698, -0.07550663868521774, -0.992097467472265, 0.9957399653472734, 1.29156386383007, 1.3131009117283858, 0.5452313158722552, 0.5138542865757795, -0.6562883185550371, -0.16279473808315797, -0.2546468474413057, -0.16566631059608286, -1.6900492099561286, -1.6740967887902805, -0.14054190557847043, -0.600683598655614, -0.3626198816068087, 0.3551147907679852, 0.2275016603915252, 0.16221111839375454, -0.8120258363734463, 0.11042847073197266, -0.34980684875537543, 0.06391576846309795, 2.000470728604449, 0.9038439706117463], [-1.0773134435977851, 0.3817769093975593, -1.3106644478171414, -0.6385092746698011, 1.2366597523092786, -1.2591559289111327, -0.8229129447901966, -0.7315573233892771, -3.040839939359746, -0.8506816502208776, -0.1472449076296128, -0.05293861758693918, -0.6207108839168489, 0.2112035779077504, -0.3014739323329677, -0.8416057906478113, 2.039320186640187, -0.6997756263272394, 1.8046781505654703, -0.33895877059291957, 0.1190639217799306, 1.192762238590881, 0.6928370674197541, -0.38919080936107125, 1.4122763529419349, -0.5152865983394196, 0.18452486896287265, -0.2947222524999232, 0.346737452731518, 1.128943309239134, -0.8535687004785039, -0.00020031198965895868, 1.3295186995121033, -1.394026798104209, -1.7523757401095972, 1.3995772975943932, -1.0526183179780384, 0.36407255845022585, -0.7427069894105834, -2.254881627679391, 0.05945265921988631, -1.1886418984901241, -0.5611747729149309, 0.486009445404237, -0.6403996934945119, -0.8518275802589353, 0.5241489302074588, 0.7215522070702152, 0.5191939854795665, -0.21670514075422018, 0.5749657533492888, 0.7106069874582298, -1.3200240706739752, 2.0215986434031055, -0.22590583964349223, -0.019676813342757997, 0.005637656698309374, 0.7589421442865761, -0.1377488302739303, 0.8069027300752624, -0.9788678030909621, -0.4288978763341228, -0.47029775567207593, -0.6262092398484992, 0.6388132356163734, -1.1158978930807666, 0.2231436708555916, -0.10074903273256407, -0.6714537881265212, -1.7812832860900893, -0.0861905611106235, 0.7354759230526404, -1.4993149112992665, -2.1861982240110707, -3.025410027686067, 0.21354096235461292, -0.34193374113478153, -0.11516396846170117, 1.5436530535299215, -0.6285195235373938, 1.0491008219793445, -2.8493351505847806, -0.36490115390138683, -0.9104891710226318, 0.5606025232854082, 1.8741358161814488, 0.461225026820625, 0.6751940363850536, 0.9563843668268325, 0.9670933633246779, 0.30171884751103145, 0.585575469768714, 1.0215239435431338, -0.6497646075839976, 1.159498850488013, 1.5465995783804714, 3.3186966131349527, 3.2541140072526002, 1.432523025679111, -0.8711856638931794, 0.6245438292486032, -1.538338468496394, -2.7159188359618858, -1.8521147907433737, -3.6654765347269485, -0.2610668932009507, -0.25872452857970585, -1.0596039280265317, 0.409512342747578, -0.5897721446611691, 0.009983983225365416, 1.250683919358056, -0.22452120316328011, 1.8914405637524898, 0.7399968191076982, 0.2735750546971103, -0.395831185003471, 0.29361837155283027, 2.3810236572715637, 1.2123947425638737, 2.0934365454555595, 2.139106336521144, 2.9342140487623976, 3.497013336193543, 5.513735983705056, 5.1723437086949575, 4.984695848699122, 3.4039744869620994, 2.09370020356694, -0.5304398508341951, -0.3451428739465708, 1.044469387995615, 0.5349021742400761, 2.5197750633998193, 1.9825583296283793, 0.6181584285329784, -0.06862166180669926, -0.7953747835659455, 0.2891497634345191, -0.5052419252822741, 0.5639358890520677, 0.6955152315434329, 0.27311900108439247, 0.4895333148421567, 0.508018425950644, 1.2795027746374072, -0.14546618232707434, 2.824173569886957, 1.9458762911228789, 0.29007646911495194, 1.5558166557088673, 1.5987123569530879, 1.4686887611183561, 0.2779300471557978, -1.648951838107415, -3.9250498605077966, -6.3711807136041845, -3.718979673510674, -3.1167992951607784, -0.19257631117974283, 1.2007041838427415, 2.5369516222475132, 0.16824778440147395, -0.4601716444144031, 0.09129389341791375, -1.0908383962148327, -0.9423502885407687, 0.844706005203657, 0.2956319773512405, -0.08906145043813377, 1.534200461933687, 0.7585868071793921, -1.3595124718258258, -1.3517405813604586, 1.2647300747368817, -0.37735866804515594, 3.36846373031139, 0.7944096315575495, -3.4448078675925777, -1.6231442393651123, -7.724647250808323, -11.839850757764786, -12.927427179949332, -18.876362323762848, -16.279146505816428, -12.711579613195527, -5.090978780827148, -1.1453377707523207, 0.43431723046963355, 0.09805727744350314, -0.3997301312091969, -0.27556025916714094, 1.0502003350686075, 1.1231894379790772, -0.45913518349162763, -0.5615443964164084, 1.469955344827575, 0.055973576717866555, -0.3949655138676999, 0.692475333430036, 0.6272386519399507, 2.2217206599010906, 2.543711360634197, 4.851717102775667, 3.3944330666031797, 2.205768865786562, -0.4022104557002454, -2.8441694915481053, -5.898028054781957, -12.327603263036874, -12.693476299208685, -12.754359471351766, -12.07675605672408, -4.895310403290326, -0.4661593649895029, 2.5429710652912396, 3.863577659484023, 3.09494504598708, 2.412153349662592, 0.3342298581247, 0.5290806766308462, -0.10377999980525682, -0.057395338287139115, 1.0678515451738984, -1.0561891097975644, -0.01825877138086968, 1.108362319198252, 1.312244472506194, 2.392612712071252, 2.4300133732700058, 5.509863525247265, 6.699796263991503, 4.062853653611988, 0.9998432817211214, -0.0595914031568153, 1.0144036179976161, -1.4998112622421258, -3.0028212191406634, 1.9272830294718835, 5.429521668980296, 6.766094463958328, 7.569336112030794, 7.554738487024912, 6.127459249709854, 3.4502865023116405, 1.5578301561535175, -0.3978064883557565, 1.0236418493660515, 0.23428886981547387, -0.7590291896302609, 0.9840549211439016, 0.30008799485592735, 0.24644097214486227, -0.09582021181684039, -0.665365506885302, 2.100671891327438, 1.8772185146939715, 6.859731495606699, 3.3407990278337074, 3.9357929285833086, 2.7495566063117747, 1.1531279608000322, -1.8719761292723782, 0.9613986394013808, 0.14309004903492345, 5.958388299292719, 13.527959648857474, 17.128882699039995, 18.04036783872598, 13.234134144803546, 6.62491493610061, 0.6766094321749531, -3.2277804864084776, -4.7197538850868686, -0.5018132260724236, 2.1141483927026665, -1.1668969944305594, 0.7088775243365631, 0.18879821216751982, 0.4813749592177723, 0.9744526405007174, -0.1837244983439062, -0.07197387078404328, 2.5290757731727456, 1.9582803009504985, 1.7818178082161031, 1.1911678996941566, -1.47081849705633, -4.518212512895943, -5.895486285899378, -5.483221806282458, -6.525898735537953, -3.9841043275366896, 3.903503314089955, 12.876767917840512, 17.380752429897267, 15.650462688825236, 8.009175845974491, 1.545565020116273, -4.809440927203834, -8.08040797055952, -5.872206435745366, -3.214842676963025, -0.9772742647407588, 1.2281658311149652, 0.9628820388312261, -0.8119002766709119, -0.11573622117869235, -0.2707400232285838, 1.4347290383561335, 1.329423706207505, -0.7845524397251395, 3.34292119057444, 1.8475368177609561, -2.332391874980733, -8.262333517387678, -10.109311590547556, -12.228119350279451, -13.32445682687535, -13.244187944953511, -12.767646409374441, -4.630353507876393, 3.218170510452665, 8.300653795488316, 3.295814307971189, -2.3155652416993577, -8.076380168217112, -9.700858953401163, -10.949795556968134, -7.390502234373169, -3.721175289999906, -1.8541573267504152, -1.7603135233373322, 0.9170470960169324, -2.078124066866457, -0.2145025026128023, 0.6230499273923757, 0.30653620078975763, 0.84183751153803, 1.1016588010009112, 2.0153130080354704, -0.5937351188902137, -7.308879821547208, -12.849234925625737, -15.361976280203157, -18.859921723428762, -18.026685309916612, -20.208707215142535, -23.074826507506938, -16.019212762587383, -8.932246926743224, -8.391252659432348, -14.180971038992618, -14.024372785223985, -12.309736087442591, -13.763851341180887, -12.468172179794951, -8.173853352335708, -6.3954177253547995, -4.552184919253053, -3.2534972227796466, 0.6372931453387995, -0.22746963895462788, -0.4042745271429354, 0.977882211486667, -0.49160066573018896, 0.13248479243484454, 0.7587285718580363, -1.4244767927508222, -2.558886430866305, -11.772483346190983, -17.495516923742557, -21.41296576444682, -21.787307855263535, -23.359635420644075, -27.619476467074897, -29.469549785924656, -24.326835448635517, -17.514700274084806, -18.957819719326864, -18.26502744025113, -17.669484671648398, -15.303420886562204, -13.449807779069822, -11.783360617384503, -9.729081467540507, -6.9420665298930055, -3.5330705290303306, -1.6668782883245299, 0.5883960686496786, 0.3836781767146904, 0.02134810229659463, -0.02900654265083522, -0.4044626853376671, 0.6832556125036247, -0.2321956975591593, -1.6853236276937542, -4.635933729794646, -12.659086344447385, -19.959740259317456, -23.672352543112684, -24.77359944017528, -25.71207579446101, -29.024586043221138, -25.914765120221233, -21.097310448994435, -18.964097066552252, -16.050612424731877, -15.27397928676594, -16.185922670672976, -12.354727643284301, -12.037331329570568, -10.68437049536383, -7.825121443072094, -6.922276111012776, -2.440027849518799, -1.6949448561358036, -0.07311937920654328, 0.05712243686501532, -1.0167794451501682, -0.11919291462884357, -1.069069507335497, 1.0524602571346342, -0.8940468877813029, -2.5493234988765234, -6.234692001803451, -11.59125756573793, -17.227959301528855, -22.3208602277128, -24.037372547182677, -25.262756951490456, -25.981681276398213, -22.190948310914532, -14.822022471319688, -6.065833307209015, -5.917838652008931, -9.281134900557115, -10.86908089312316, -9.01766469211874, -9.331905753109226, -7.692716652765332, -5.662950740648224, -3.96648003466943, -3.921482759485401, -1.955162459587653, 0.061662856680954364, 1.826334625910993, 0.7182422706037833, -0.9896948431000125, -1.0589671779066208, 0.7341003053667509, 1.556370545903159, -0.11039156304355584, -2.3634287554452493, -6.317877517144013, -14.223759227407818, -17.74719261070574, -19.566982790685024, -18.607243649198264, -17.04662092278714, -10.249758768992768, -0.4634260919670981, 5.453976328842459, 3.287549783606944, -3.5010286755401134, -8.706695659873233, -11.98565021367071, -9.13599846617494, -5.364247512554269, -4.140025239488182, -4.367991825683458, -1.6355744407393944, 2.5476850285126527, 2.026631675292416, -0.0699995503589859, -0.48929875924308686, -1.459727307629136, 0.8395013007611419, 0.2877906811196917, -1.251350919650461, 1.8524271685135885, 1.9607883630366592, -0.058609964399058675, -5.20049625164622, -11.012777875534788, -11.720210374197066, -12.211629626642946, -6.268127585672989, 1.5566276880477603, 12.365916685977012, 16.974483249353366, 9.607347365435288, -0.32438285627203384, -9.349261124847644, -11.713488461160717, -8.358301634368711, -3.9500716851442994, -4.80643196716664, -2.4100258791750306, 1.4601872654397552, 2.570923706647296, 2.5285121763409486, 0.014861999149880649, -0.13517212223858002, 1.007006788487942, 0.20834723940610164, 0.29510472804436, 0.06500817059042854, 2.212531978670486, 3.838396778780832, 3.2432059363488888, 1.1421582370354844, -3.5949435625967716, -7.797979829940841, -4.901426770855358, 1.8957148708520608, 10.532529636420636, 19.266748275625822, 20.767810692126265, 10.788747404910563, -3.9101646061044497, -11.385248218702872, -11.393908229144516, -8.665102852594057, -6.911983412648584, -2.568370391844688, 1.3035120846263681, 4.457566290707063, 2.8204736284221554, 1.2795204208686493, 1.5219105690289416, 0.8923913728052117, -0.3188616267003226, -0.6875659162454449, 0.043094113440899265, 0.06799002135138299, 2.0561846284911947, 4.460619817331253, 4.288157224237256, 5.600213939502824, 3.8931512422534906, 1.3278855636902376, 1.420619314814998, 9.0417807630732, 12.595576619700871, 16.76709021273237, 15.079280752054924, 3.884011551701031, -6.440715110365834, -10.125995033350618, -9.344815692269261, -6.265277586862587, -2.664653585040025, 0.7021334072726262, 1.7759611755404436, 3.9866554837499573, 3.951092567759882, 0.7731618709816603, 0.19295470362410536, -1.2826631991182216, 1.2944385052820724, -0.42012271112001365, -1.2961624398081764, -0.23227156977011973, 2.0236070720123243, 3.6784841831735515, 3.7789259898192, 4.428843033437374, 6.554129427579606, 3.736001111773571, 6.189160472407125, 5.499347700593136, 9.444734589421415, 6.011092122925, 3.2178893173972156, -2.729229608467881, -8.925152655593394, -10.59316778068631, -8.891315647529023, -5.126871224488894, 0.8088307707588483, 4.031865864416737, 4.971832916862414, 5.240657921826893, 2.753966204533412, 0.9709120320061675, -0.9923279480378671, -0.020449179723945887, 0.0680721573632929, -1.576204398939679, -1.0320446513155728, 0.03595888964634073, -0.13255554762933522, 0.7345130384697172, 2.352097252622563, 3.0084039414609167, 6.5107880138327525, 7.543728848420769, 3.6481895924703887, 1.0052646766503495, -2.7687737696765504, -6.354377822394155, -9.424416033401188, -9.875511083008583, -8.567530743126778, -8.010601449314466, -6.804963393723686, -3.4409477815986627, 1.421254333055402, 4.961737403319164, 5.603159667160755, 3.9945470383370787, 1.4792025057074802, -0.08400550448820533, -0.6657456310222407, 0.33604973239274755, -1.7092692265523763, 0.07150293631064655, 0.6981724816699467, 0.2973883579307681, 1.1994861204436433, 1.0693395049094463, 1.700218771562771, 1.4003621169195843, 3.730801038620544, 4.497414892634654, -0.5272668510222664, -5.51936567990101, -11.79621740147336, -15.453174154363328, -11.915298069447054, -9.624739774199243, -7.614625169743413, -5.988049635147979, -2.826403925891398, -4.307098548611761, -0.11170903555312683, 2.068558002111027, 1.4344852667933796, 0.6292970711103673, 1.0223838055906502, 0.5909768153082776, -1.2325726626821931, -1.5738880442647587, -0.6942123682069132, -1.211918767521017, -1.4386257373744962, -1.5286682856120104, 1.1104222226010225, -0.1263826930582751, -0.3403103684922456, 0.18034261783735045, 0.05343084557469868, -1.5503935825848454, -5.075562412576698, -9.303807758852853, -12.468705271616876, -14.333736311490382, -10.307639610870936, -4.565825034437406, -5.229136251044281, -5.5761980976853005, -5.52214831533138, -4.707903536545222, -2.8132230038997847, -0.8819125120322372, 1.5992323845048317, 0.06924956715284726, 0.30224550562867913, -0.2590280666283522, 1.6302740385381311, 0.9317510388883083, 0.18965945360378728, -0.14078654327402312, 1.229252935261777, -0.9905503352880654, 0.665265717182224, -0.0273409173349222, 1.7769104745658355, 0.2707673292226597, 0.7690043053788136, -0.0494346730096845, -1.8988828783426817, -3.5399586158748324, -5.362207516673014, -4.010179158673335, -1.9512947449174436, -0.9852282810552865, -2.0241975873951206, -1.9504004641444272, -4.780457042004414, -2.7593509683246173, -3.523852808754527, -2.1962552491136402, 0.24508580076469785, -0.45471364660864266, -0.6513995653723164, -0.13535980263604475, -0.10071045032987772, -0.8250596126001645, -0.12769472246311053, 1.6858217745354236, -1.2571047337764942, -0.37706068561058415, -0.13110008426026085, 1.1763747488493272, 1.6885173915763025, 2.5000944679518775, 3.1967016687433403, 5.871979138964007, 6.490603331925664, 4.323350949352714, 7.297294413964821, 4.542957182473111, 6.664496283962387, 3.6542341492241155, 2.930988546314606, 1.3135201857890204, -1.098702203685411, 1.2382690466263864, -1.3782921812476716, -2.1916052937777355, 0.5753410148270387, -0.07083228108183386, 1.710825896404055, -0.9235357189593515, -1.4773713136762487, 1.1979359648820391, -0.4337186272400873, 1.0792905103354118, -0.04041756410834161, 0.04417263220250115, -0.5113550290550374, 1.7801039825678682, 0.15535145772151426, 0.18046272153569934, 1.859489156639052, 1.226121309805477, 4.269344529062232, 5.237687329894162, 4.517545929364491, 2.8239061609461076, 3.101658909542164, 2.4663185886690093, 1.3866420157230117, 3.047159622784407, 2.6392424153326624, -0.13948514538745366, -0.5906548988062945, -1.2836391210447584, -0.5978741069253373, -0.5449765069520338, 0.7217117092394119, -0.2326907658242544, -0.040348168996574424, 0.769464162725879, 0.8996572200601746, -1.8109046573445529, 0.6878211754336695, -0.13190373967600574, -0.42642954484464163, -0.45526164155198356, -0.051826533069365535, 0.8954189692178748, -0.16207425250909474, 0.20332983906348762, 0.9082673926123204, 1.5116409724731676, -1.0897875477657875, 1.8117023619144519, -0.21195499879187576, -0.9983520506496222, 0.890018016205607, 1.8365425030511648, 1.2654573448177395, 0.6284359728358524, 1.5523728579204958, -0.4671704163736748, 0.9543858655143943, 1.227806673208247, -0.41774510590870767, -0.39337181551229594, -0.44579927518298457, 0.4996910872344077], [0.05368048898195378, 0.3117814610444876, 0.9224067900896705, 0.17588139269759515, -0.44076638479127234, 0.8751270093725209, 0.5205107045783842, -0.16942319418354254, -0.9139967632457352, 1.3885106694982974, 0.32661683559770455, -1.4622058705616297, 0.7412802684438696, 0.9178371881015289, -2.1546768802892706, -0.5859563504270902, -0.4959636782571717, -0.715732300357613, 1.4212997994454075, 0.801307348561125, 0.5518417364473773, -0.8335322175287532, 1.2160895557054032, 1.270457430509248, -1.150100019271055, -1.6928636073666123, 0.3547430903936582, -0.7087574168343918, 0.3265700020164004, -0.060496952263683915, 0.3425325696919809, 0.14513443749072497, 0.11534921872378799, 0.22283670649633522, -0.29119063983559146, -0.24745630654355336, 0.9759453077496151, -2.1765453384718336, 0.44478157246085315, 0.28058675357791896, -0.7292899473513865, -0.6618157337108128, 0.4472067627241175, 0.9190100855468031, 0.6128495199640563, 0.8472988833798086, -0.11890053659107477, 0.9991617014721823, -0.8317005866905234, 0.5423247571630186, -1.509497786143382, 0.718267132983074, 0.4372330958030218, -0.42114091397720677, -0.25757182000846035, -0.23349179871297707, -1.594854211437502, -0.41808417907535744, 0.0971610337287938, 0.7963331018280497, -0.5073047629509507, 0.05902085626552568, 1.1020517642124714, -0.8271990111939902, -0.43579340242353737, -0.42714735095308914, 0.13507118954341532, -0.4670595858058595, 0.12265448204613713, 0.9221667449192612, 1.5449474506211867, 0.7900572441651689, 3.716672795937939, 2.592203392482315, 3.8763933239103396, 2.5907066357751853, 2.3159605231569205, 0.14993709813133538, -0.170492319389631, 0.29243939722802065, 0.06701806999331988, -0.9727305762279072, 0.6633535783301443, -0.00729608716449844, 1.4697150021648144, 0.7530828111911589, -1.3610706320754271, -0.7138678593419882, -0.8026308690932855, 1.7271986341440768, 0.2581663768976465, 0.05535040943897095, 0.1728331249128845, -2.072980678670321, -0.7989226132323972, -2.3606506962919904, -2.3834571520309713, -1.8536316944661304, -1.1869857979904033, 0.5638875982783895, 3.163442395143563, 6.485792873125319, 7.3846258984598645, 6.225970896961501, 3.7933402116084287, 3.4558774036204762, 0.6444640632903967, 1.4222269975053394, 2.649305970582307, 0.8064660023083053, -0.0471527069974778, 0.12169856081108324, 0.8248583233001536, -0.14728256812375076, 0.44843365619956804, 0.8798168713977224, -0.21318868454278353, 0.10050681998619178, 0.18628784749796293, -0.8232836548931467, 0.6257894052886673, -4.542017577348953, -4.211309872534999, -6.448833507487353, -6.717564145447041, -8.975066099413384, -6.95875630520135, -5.453104885711326, -2.041355630365437, 1.5323768981219217, 2.29120804678512, 5.043355030722567, 3.6762895547210688, 3.215521515584516, 3.311375323433205, 4.714183907596708, 1.217720395034369, 0.9557719990240917, 0.5024312253336817, -1.3581481337692194, -0.41179136882242545, -0.48157078260959774, 2.9094591069712084, -0.7421667721330014, 0.2133207015943371, 1.4388722275658687, 1.6492621958771085, 1.1309183097456823, -1.1843459260485452, -0.7516360642128566, -2.24223585733816, -5.973862182805973, -3.576873215786353, -2.8104285248730547, -3.6856593506783133, -3.248187495290109, 0.360158070822007, 2.8611062663587137, 5.597583546427536, 5.708048012556075, 4.919450114217395, 4.3938368059308965, 3.743385754660595, 2.9527775795703444, 2.5841526605355165, -0.3632352249217449, 0.0077441564700992515, -0.03592845536642477, -1.2522283668414647, 1.2286800454707452, 0.07905045564927703, -0.18400951185015768, 0.6408028509309776, 1.5127264492208465, 1.6473145660353727, 1.5048174783564068, 0.22287396833094594, -0.31135295358880566, 0.2304987964398194, -1.2939827261773473, -2.502713853140363, -6.950748039319598, -11.493697797143788, -13.964086349281473, -12.562518691245161, -6.115415516665912, -0.9967566396415344, 4.0044026590581145, 3.3578148879593135, 4.267098121472658, 5.485239189326089, 5.905729689665886, 2.927409938795483, 1.643195093461686, 1.0150756701526762, 1.500755731817538, -0.14362390787561702, 1.0710117995806085, -0.8366693162576679, -0.8073777286666172, 2.1215485583151135, 2.303674686780975, 1.1077211678763919, 1.429192993881791, 0.4450956243129541, 0.027892138225627854, -2.3435171587359465, -5.624755373824079, -10.104233272378886, -16.315149891397397, -22.970466309311067, -25.91410364803166, -21.704200240300878, -18.103302619458365, -11.747634843307454, -4.186820751499377, -0.11670452924706456, 4.496202762762017, 4.607707139310095, 6.4870441442457, 2.5634105341879687, 0.5739784100863012, 1.228679136153005, -2.331988571920459, -1.2157678728380905, -0.4691960734413871, 1.6142785949573915, 0.033457570114031034, 1.1856198539755791, 1.286683315470614, 0.6091987329495041, 0.03516045315881909, -0.6172796743310938, -3.51693970391685, -8.526822350509182, -11.264921915593932, -15.171548374392817, -17.873838376540082, -23.211317275369115, -23.04241337670662, -22.245642066004145, -16.402735446017747, -12.040639686674975, -10.184641345050853, -4.901583476958728, -0.5324144137645548, 2.065021393214723, 1.890105699966894, 0.028662542653974422, 1.7030515859781423, 0.6142738004269138, 0.36066043987297053, 0.8539035706071278, 1.2872567524520744, -0.6675060889273099, -0.21357301404276646, 1.2523934349683616, 0.24250688752281443, 0.27793396282862104, -1.7809857338917594, -5.0140952407032735, -9.710185993327286, -15.316842983285706, -15.488312561876844, -11.242913972729356, -8.419855482244948, -10.348458358962404, -10.54027850498184, -9.151466347882199, -9.071305636084936, -9.858658681698333, -11.1399740293268, -7.2496762801069154, -4.930163850720924, -2.241287363270222, 0.7198070487795218, -0.13773746774854798, 1.1130182310228591, 0.3787801868388976, 0.4079457095997098, -1.122235792206366, -0.910579875418862, 0.36151948013204777, 1.2661051900752152, 0.23317901163394045, 0.9138469812737894, -1.572981257511577, -4.904446159083193, -7.277977247137557, -10.296839143289139, -12.544189056249976, -11.048046645617653, -2.203684614079309, 5.900341414410309, 3.6691349436921095, 4.407340196009363, 2.84666635179153, -3.04527917376488, -6.623704400733556, -11.413538526613522, -10.251752230596681, -8.005864662990147, -7.220654214136384, -4.465270797463329, -0.09666705944427784, 1.5617833144308542, -1.6256188179939322, -2.980224678572158, 0.1607288918339818, -0.28518638601734153, -0.34281658655228664, -1.0616643077560153, 1.2572149901938574, -1.766681457119027, -2.5202850080699415, -4.957657154327309, -7.11818139808197, -7.241206151140811, -2.7323465830372053, 2.4679630198022635, 10.836402313600136, 16.112905406740946, 15.089882008266374, 11.739932474215603, 8.437979249561518, 6.867529598584081, -3.750598711295734, -11.856259035172826, -14.592917822722558, -12.31020460628429, -9.05875158395969, -2.378981795923478, 0.8960801465871071, -1.9134786309923841, -0.8734811832449555, -1.8746425785236223, -0.6026814878093723, 0.38726759557474005, -0.5288421024797063, -1.0954858139298174, -1.370320305666555, -3.8386204676521296, -2.6227867003114724, -2.2879388898494333, -1.257785588283454, 1.9122336045703756, 6.786462933650144, 14.880715265284307, 20.61582602319312, 20.719443985488027, 18.468285593376763, 16.561609621132543, 16.974192792994657, 9.780283859842006, -2.1991532613056903, -9.598128772154306, -8.339797709760854, -4.966670341745205, -6.335799511233119, -3.540761857795277, -2.1157029615653205, 1.2347717191096417, 0.733716893756686, 0.865830005928751, 0.38859205884195813, 1.782129684323171, 0.9563161192930073, 0.5038262828755736, -0.60971562680025, -0.8732291137365225, -1.920355130576695, 2.1923975198860552, 5.234120338049326, 7.5803988097128245, 12.750022933053259, 19.237202362806965, 18.775294998339845, 17.68625347305182, 14.51356601346832, 15.164599369650674, 15.795762434884477, 8.898442779168928, -0.40083085355384673, -3.0525162817111826, -0.9721673509698608, -1.6149570664757609, -1.6351085178788458, -1.3225618534001438, 0.16065818861329792, 2.0213615589909386, -1.6236706221178057, -0.7047392721621141, 1.7150344969052391, 0.985951532132465, 1.3557336598347436, -1.299633415780513, -0.99491155397905, 0.11904369956542948, -1.4597025922119362, 2.5132177088944623, 5.163955940688747, 7.759295794003065, 10.741368061166, 10.529679309230332, 15.426181864615938, 13.420314474120968, 14.213620810128617, 12.869321328560595, 11.95350676772646, 6.766620270786197, 3.277848437758764, 4.27290393721231, 6.608444953738691, 6.299921824875141, 1.9932443188667026, -0.8210266515249174, -0.2848425415172355, -0.016596671979425676, -0.24779520277185424, 0.3133765719355287, 0.10499246698898909, -0.17330602053231456, 0.9463695879090843, -1.0606979708922235, -0.47480858331114295, -3.1072419144956824, -1.0315818538066837, 1.355010088740424, 1.373099808933801, 2.322748687800168, 2.965373555837733, 5.165439584021432, 8.245879494116362, 9.56011945939589, 15.441995233196922, 14.932957552582865, 4.379594725447543, 1.7572838284941084, 5.823099511525606, 12.415768316319625, 12.518291985573164, 8.778465602731078, 5.696911781616233, 1.2648472351443025, -0.11217270957426435, 1.6694038303287322, -0.4473963813201385, -1.0876902448004229, 1.440171765677806, -0.6489974996224316, 0.022597668311143557, 1.3597236876796845, -0.4285241738161063, -4.559591761595016, -3.5343516425848986, -1.862536611999551, -3.625483408541422, -2.994723888226099, -2.595053838795395, -1.9298053555265, 4.2873001158229505, 9.40561115784046, 13.661268294453633, 5.270037331897389, -1.6481251653771525, -0.4202292587723873, 8.324106360249607, 12.932310200216126, 12.803922630770407, 7.285087571003443, 2.0722263451708614, -0.8001330950882377, -3.143519695822855, -3.868556789203234, 0.4835019310853649, 0.005889184491721068, -1.0324870905293242, -0.8790690436137935, 1.338901472673957, 2.227616041608275, -2.39069810685227, -5.450023451378193, -8.817411919364323, -6.490629882287185, -5.427257445947914, -7.5531038767928935, -5.641370782194979, -2.7030227766872685, 1.0449098475333687, 5.937739918831894, 2.536577905534501, -3.209614274816234, -3.5835179062038325, 0.28054383779867437, 7.930301087310701, 8.158571811688486, 5.34358109103011, 2.792467838242584, -0.7148416204840028, -2.3280565735110734, -4.237908360957215, -3.5953554578490197, -0.41183796445254345, -0.7652098365502825, -0.4056166812278182, -1.1664552014083787, -0.06985288684766823, 2.537346239292785, -2.085578576804162, -6.5443649439342435, -9.940721722780033, -10.206237239607152, -9.651391865501846, -8.125840598355161, -6.957847668302876, -1.7002741708130351, -3.1976170512691904, -2.5654667559195596, -8.448608099520582, -10.197161832159072, -6.307004339715273, -1.6534998774643273, 4.619820171095449, 3.929624669846397, 0.34311656819933667, -1.9746669652015818, -5.7833663799503086, -8.990044843749619, -7.919715543525718, -2.6298306193300767, 0.03655714058885148, -0.4654030625968729, -0.6366713004528042, -0.10020221941259715, 0.9636665441893774, 1.7544861322792606, -0.3795471191565305, -4.691324512763269, -9.047000502061431, -12.707763153392609, -13.348868879126558, -10.739080067360515, -7.426535916784224, -6.3997120989648195, -4.26537843725541, -7.029033597080898, -10.012203343197115, -7.13476465536909, -0.8992773220670991, 3.2648125123169103, 1.0808001984395335, -0.05723764211008356, -4.318710437027104, -8.215255944227648, -11.40639676859838, -11.378934080879645, -7.652740491796471, -3.0164758201622828, 0.6966837820891607, -0.1756609958066422, -0.43120142646955417, -0.662900372771085, -1.8944402518625831, 1.3463724118038918, 0.371070723564389, -3.123949967281852, -7.597699450371179, -10.113578991025657, -12.086482411131787, -10.686547810143061, -5.849005033893894, -3.0116021275911877, -1.3706360245935565, -3.311390343332238, -1.6177483787015678, 0.5014330208394447, 3.086363459733446, 5.295826331602351, 1.05179946110191, -4.890385616278637, -8.16399855479196, -10.584035669996474, -11.766585794447193, -9.017706179010386, -6.8285429936427215, 0.30553503478840205, -0.6073311819591598, -0.04461075427792476, -0.007226475277125584, -0.5629884626283389, 1.0284887448524094, 1.0529546381102972, 1.086740026806997, 1.5133680369887461, -4.527014292949121, -6.6951529762307365, -7.126310718599543, -8.402844288023733, -2.9688574853494742, -1.0904070282407152, 1.975140562221935, 3.1073146652125234, 4.43259408106429, 6.459938072019314, 7.231516929075536, 3.938241247261854, -0.055800703810255405, -4.858833770306361, -7.591149374369647, -9.829915663820628, -7.131171313481366, -9.704589131671389, -4.129703677208484, -2.555277205446373, -0.44218854801973845, -0.5991642844066845, -0.847675787508317, -0.9871292022968496, -0.49794759819519013, 0.9291762154423411, -0.15875605258843797, 2.092345255452775, 3.1158352635751783, 0.4231326937013013, -0.37517324065912355, -0.08038476514711217, -1.4925256529066895, -1.6209605944110108, 0.04642515062536161, 1.7277583081231032, 5.94444898977555, 7.491271756911955, 8.673583626159639, 1.1795627682683785, -0.9485042888693059, -4.083267331749523, -2.6894496386711757, -4.598248535274735, -3.5175072488736108, -2.1426661101266986, -0.911329888338914, -1.280893290362353, 0.5042540084163514, -1.4337239936191883, 0.5961528784951398, -0.06848483862653916, 0.2679409515974941, 2.5181553928262606, 1.5868372195297402, 3.454492955146916, 5.5031221725256385, 7.09585766337256, 6.35260629304807, 8.344983915974629, 4.293655149501487, 4.894269194365321, 3.315552678092309, 3.9543810325303537, 4.176912027319207, 4.466905158078512, 4.592280417069749, 2.9131704581989637, 2.8862458180633164, -0.257759527607668, 0.002116106924895192, -2.022525092108998, -2.906949019297325, 0.7187432023297577, -1.2386677155117871, -0.47230678989071917, 0.27717733086598273, 0.16658449839196013, 2.653787656029132, -1.1280555755519501, 0.9528401482501377, 0.3077168035950308, 1.1979293070755863, 3.7075438203842523, 2.564418491626565, 6.521132126801988, 5.728295041525308, 5.55037910333555, 4.7126456734117035, 0.790010247813117, -1.7383644458626586, 0.8473548568081428, 0.7427601571319586, 0.7730654749370811, -0.7072176364338434, -1.672500754492454, -2.2999173006185543, -1.174113895066982, -1.3035152018136074, -1.8777871100209174, -0.504451179744379, -0.6585337428938066, -1.2073061778906757, -0.9495655708103881, -1.0102373224551262, 0.5949304622989128, 0.32710141217629424, -1.1211772394754416, -1.0279268556219054, -1.540852728713328, 0.23463481470286668, -0.27766392957025293, -0.8760110729688061, -0.725307128910247, -0.7883591960442459, -0.767148670635761, -4.678359434251848, -8.54479562581266, -10.32183048647524, -8.463997004001714, -8.786925496774726, -7.038698773029616, -8.571711254126665, -5.239850841311938, -5.66157883065748, -5.494972180273421, -4.497233089904093, -2.6919048963328964, -0.6305160914570158, -1.4335683692623242, -0.4864947298402039, 0.688662469840096, 0.33303743796185376, 0.07220672756489072, 0.4550507797621855, -0.3875140042027583, -0.5387092848063288, 1.9831855780125989, 0.1188849035008969, 0.48743193726475337, -0.3356770327058438, 0.011566537670605897, -1.7221313255740023, -1.380101116726015, -0.9993710231168813, -2.780631793350411, -3.4000632576402507, -1.6642728721975946, -4.501612915245308, -4.161477467803755, -3.995361246623744, -3.2371826808658897, -1.431951611607839, -2.2021322139076673, -0.5745916974735605, -1.0789026988568895, -0.5241803229197867, -0.49207482724441404, -0.2194772656411785, -0.7570841201882043, -0.1628085829684947, 0.8308208066258939, -0.9191579326123988, 0.8598100333194775, 1.2203647261255426, 0.18739652241639096, 0.2798927009433995, 0.5119586772773044, -1.358796788775652, 0.8747185881414449, -0.48806309477281906, -0.18172128123292375, 1.6416494011955884, 1.4093167685824075, -1.370609804081738, -0.24782410931915097, -0.05965906673874172, -0.6618132681875812, 0.029163366943978593, -0.2567881293533906, 0.9899952349533028, -2.347474246950288, -1.2537302478675396, 0.7473419893068693, -0.3703998465344579, -1.4725952454911626, 0.15031367384129835, 0.35643184538326106, 1.9737233174439845, -1.0248087148236886], [2.9549210727473065, 0.9215155422255484, 0.5814173526446607, 1.0397554794998798, -0.3221555795002902, 1.1417673052948203, -1.1875477445627478, -0.8157499885918388, -0.5879826928065935, 1.465762783498877, -0.1631451074591227, 1.2427712004801932, 1.9096342918908848, 0.926647940941338, 0.2396201372321729, 1.101316610382471, 1.2272737683317096, -1.3256549905027333, -0.2847173268046312, -0.8806094221053081, -0.9073633215221455, 0.030756032824358754, 1.1786700113516064, -0.9704922103450278, 0.7283830544914232, -0.6055388118571278, 0.930225281777683, -0.12944183598867026, -0.9969794640537757, -0.2610794328722345, 0.35090537896974827, 1.3833151744191212, 0.16807697323464535, -0.13272682192628268, 0.7121200853185595, -1.0679247036239463, -0.6526160442358062, -0.8657157870513676, 1.5755833145362608, -1.504147721471563, -1.8421307435454382, -1.610292244985163, -0.2639430274463156, -1.1911248776339576, 1.2239248004174, -2.496635661344705, -1.8306694334232387, 0.274307045491108, 1.1664695057372936, -0.3505372344868798, 0.47283714968813634, 1.078447694788691, 1.8241151847951849, 0.32998063873660655, -0.7480539932297694, 1.5166023588496493, -0.4143946558258643, 0.8289495969180851, 1.0897397636440258, -0.06269713670340046, 0.09604820938125608, -2.3923454411907183, 0.7426478758917171, -0.1895522283987812, -0.7415250870488831, -1.3797031458274773, -2.4888848143962727, -1.8097071331845078, -2.115250990864782, -0.18558284540702907, -2.1184582834582635, -0.9057325360279331, -1.6000495591279533, -0.8070760045250763, -1.333016873659981, 0.42018023211111605, 0.01254216000477533, -0.1715577513836264, 1.6848175270878276, -0.8872199161569667, 0.9169560228251916, 1.674102082664704, -0.6367083125289733, -1.0215019011912303, -2.113282245975118, -1.6691974378321333, -0.9706389533077904, -0.26038937414129393, -0.24644486836515678, -1.1250739873520548, -2.26404088807696, -2.1203558297699696, -1.5540266539912935, -1.709927812747324, -4.42566960685209, -4.334815773310397, -5.355573293004993, -6.364848223362322, -5.117588126936932, -5.456020384994398, -3.31158241158973, -3.7739431799549354, -3.9105298380352553, -0.5403135565331281, -0.6373500282589476, 1.7566080513093305, 1.760125956873396, 0.41714578832606597, -0.8730714311039761, -1.4962518208941864, 0.5718553854101568, 0.028148240284785978, -1.886823158371039, -1.191498369405911, 0.06503013406191183, 0.6402446300046787, -1.8148971555328022, -0.9446304686202323, 0.3243398364652557, -1.2790342822720493, -3.723860135718231, -4.249486147302496, -6.9246656334426975, -9.114294577381104, -11.024751684831575, -10.536400065184395, -10.389992681531467, -10.560125331073403, -6.945885020984503, -4.602880377601168, -7.024072602821736, -2.0099008670371328, -1.0883483324596177, 0.6755848948212628, 3.9095344189051766, 3.205136182613484, 2.4582422010138822, -0.40262517360082534, 1.360457618645858, 0.14234820958426286, -0.2895094421501163, -1.917750102885921, 0.5717994352186457, -0.19728834758319547, 0.427629059613147, 0.33214431035097153, -1.0561333653341614, -3.7601333336304736, -3.5261365373343785, -7.277131571421536, -8.046690196779533, -9.12440801434396, -13.861360258327418, -14.92417895831018, -16.829308693150754, -15.757052136119787, -11.077458238880267, -6.10614735974236, -2.6179348556759496, -0.19908965083158242, 1.319375799930301, 3.723238422283708, 6.656149874084868, 5.723957682117276, 3.943795900513247, 1.2456528699101876, -0.7561532833228495, -0.12041918030371851, -3.050980347775536, -1.4506818215160362, -0.4050785197736418, 0.6654005380464081, -0.09182857055729865, 0.6807308521086234, 0.4395930013675521, -1.9347332547089693, -3.4329588304508865, -6.223052785993798, -9.941621287531456, -11.379790613120537, -12.130208433314987, -12.62122136711855, -16.167715570899144, -13.729518261153414, -12.100672446995102, -6.35111240607679, -2.971159421790136, 2.9765689940753113, 4.44330928265788, 5.323852364487474, 7.925380680299589, 8.589637539567606, 5.047191334934072, 1.0650469894819292, -0.6858699709330436, 2.317221687497237, -0.8690317957000215, 1.066632745922033, 1.1714323560211468, 0.9504497278288739, -1.0406433037849834, 1.3982702237353046, -0.5528572676800679, -3.1822001419120265, -3.2130753910418033, -5.435316402867959, -3.6392391063689886, -5.160237295771869, -8.042387190486266, -10.376409654097026, -13.297027980361818, -14.99000693872636, -10.597596253114627, -6.952314399591757, 0.15122688000421258, 2.103915545711434, 4.742012829898491, 7.914573114562324, 9.125618913978451, 9.276781686100517, 4.8186834667961325, 1.905980701733851, -1.3601773723283956, 0.05989457936759913, -0.19557145483785882, -1.728736044827716, 0.7244068147536751, 0.6626723246527348, 0.018661508870357942, -0.24379455043987805, -0.7653916240923093, -1.792158780582396, -0.5644099096033339, -2.7942002377740853, -3.030760944958056, -1.1700275039811519, -4.992441524588848, -6.1153609580849215, -11.571110581959529, -9.642387532630096, -7.945205208506306, -4.979423437355805, -2.3856128974299047, 0.7143553207185495, 3.7157358660143065, 6.072137580941464, 5.714230882506779, 9.56459658306578, 5.959997879473771, 2.730206555183844, 1.426108264917274, 0.49375631754132127, -0.30167525121617383, 0.3314651720996158, 0.2352692576570099, -0.11058492158280274, 1.3048395258256498, -0.7147036276589743, -0.3247549040400113, 0.6458070375888199, 1.4491512887366884, 1.7526401704014911, 3.5145630434530046, 3.288315198413287, 2.3019966409364585, -2.14604147329634, -6.797926351780633, -8.514308465211663, -3.8922684857194416, -4.301718778297461, -1.736363026992829, -1.696121203790901, -0.27240394241796145, 0.18188527391418757, 2.5884616223967223, 3.613159520779114, 4.620029179372281, 2.8300372911513345, 0.7796461595141879, 0.26285563394667694, 1.761035676241875, 1.4630268906455266, -0.9814195157172556, -1.423949429628376, 2.5154266671662073, 2.7452602131135446, 2.6273749603184853, 0.7235555885017053, 4.726578923450517, 7.222826716720044, 8.153837733643439, 8.329606965216447, 4.440174028640791, 0.7322167712003173, -4.183904694942169, -3.7330258984824347, -4.082571463782629, -1.2550243794607872, -3.575724978004197, -3.0302716340957256, -3.707456864828608, -1.807209423493199, -0.6854348485413674, -0.8783986029360644, 1.6233605645000309, 2.6311999983348158, -0.8696515780265576, -0.49161401461252163, 0.5508606437953569, -0.6261586315028441, -0.524976579624183, -0.5250834157867207, 0.5825406594489588, 3.736366604513938, 2.797480855129125, 5.76945175868336, 7.016035002766163, 8.561806095580582, 10.666624994194368, 13.440434401089485, 7.849721492632217, 1.0176985495978377, -2.7857675664618893, -1.6712956122664178, -0.39219395498127607, 0.9961418756706538, -1.553433985807629, -5.441350149366771, -5.756233809064829, -7.00304286921015, -5.948332326502316, -4.96439577792587, -0.3378497575429511, 0.8418559208273587, -0.20951037468560946, 0.7178492352125845, 0.40223191700761723, -0.5662884585991074, 1.4981463154181578, 2.152485920344554, 2.787528632615852, 2.6351771220081104, 3.9742243364492147, 6.46634702657203, 9.885342248759518, 11.336816180848643, 13.245086815653867, 10.235418700989067, 5.8757201629012785, 1.7136486646377544, -3.3117802258697577, -1.9797605795808448, 0.9003349342179549, 3.173507289653077, 0.38537480534557944, -2.6761435652032257, -4.846578776545864, -7.527484096948016, -8.347038025608944, -5.279336183094494, -3.706804087421549, 0.1251902959666801, -1.0330825437667188, 0.7506291899002485, -0.5413987707977144, 0.07330601724019956, -0.9015565167625927, -0.46328770956024734, 1.9661193075364753, 3.189464558881891, 6.516582042476652, 7.654353033388569, 10.707539443219954, 11.434347349807606, 11.202694546882253, 5.944042042360823, 2.784534061985857, -3.4757699035397547, -5.5684720253937865, -3.8437964638928164, 1.1032153146825445, 5.954066567112388, 4.838991213797166, 1.833588434341095, -2.5501057878050095, -6.396933498385901, -8.2263549699151, -5.156371670515302, -3.246220282051226, -0.4313175459745955, -0.7081443051300067, 0.9327631077025177, -0.2499328381776737, -0.6127906979821676, 0.7657450812058161, 1.2143159642239207, 1.2707324689392847, 4.928991218247344, 6.757266769040224, 7.937968532670995, 7.116810223614582, 7.676779007118099, 3.7655856411058504, 2.5778384917998545, -1.615734299452784, -4.423500386424665, -4.2607566575031735, 0.21716151756712285, 4.1180694616794655, 9.16357306420398, 8.680895557039303, 4.769099971511634, -2.441032399668886, -3.022948002453236, -5.243977629132868, -4.852772550397017, -2.924501636400753, 1.159576047935194, -0.08096408415657114, -0.40076060331581925, -0.7011124383373682, -0.05304170692280825, -1.806855724124151, -0.018796134425124143, 2.814726632889599, 2.9961873437623394, 5.852632948625767, 7.67669297304614, 6.140449599268493, 2.035853366523041, -2.525301979900773, -2.4283870978100977, -2.18747056719009, -0.951607114030797, 0.27647833724235704, 3.430552215825591, 7.279389164238586, 7.318186934647523, 5.575498708922957, 3.575111552826624, 0.26526991919474774, -4.581375833903935, -5.162740073013546, -3.744824934603772, -2.3023649893473213, 0.23560961659134913, -1.4771234604724797, 1.6653128009849796, -0.6713661193463245, -0.9466378486613887, -0.4453494206871416, 0.7578463564881877, 0.09170733443675871, 0.34870057692591977, 2.93070667998861, 2.054675932417539, -0.26467208268711945, -2.0559176315050527, -4.114859885971934, -0.9172189411720135, 0.36602418194706793, 1.5927700050611666, 4.450638526979676, 9.454460215430426, 9.634639536800066, 7.273166697915891, 3.986388023996172, -1.2716631187475635, -2.3193890330531763, -6.3675069647429625, -4.669724011192469, -3.7676731287823153, -4.161049040103962, -1.0054571645031263, -0.12708733032235808, -0.2661533638689851, 0.2185579856982596, 0.8512958762295623, 0.9299971866836862, -1.5942101202299492, 0.8267352708387058, -0.4474195747675852, 0.4235826117113807, -3.08621455530197, -5.889796499018679, -4.509503382228911, -5.280958083928641, -4.354118737522064, 0.7395245553945932, 4.980192287193146, 6.569153758616222, 7.616572080291289, 3.295654802078058, 0.8980365932105557, -1.8343848935954927, -7.432855524318602, -7.052109704549114, -9.48990852400001, -8.633329899467892, -8.130019474652174, -1.6977610206913145, 0.5113878612093601, -0.7269854468528812, -0.2634162378423442, 0.2037674988100841, -0.3075496645834111, 0.636155431042049, 1.5985622901993746, -3.1464875855471197, -2.4636915345581647, -3.510597781755344, -6.242637336228064, -10.225785278490475, -11.732042282747507, -12.918909652089344, -9.378741045923977, -9.369579667953156, -0.9485530629082897, 2.1093572673606955, 1.3507499645998868, 0.500472979758728, -7.035891887684576, -11.610890993671754, -12.168414041461675, -11.699882610283, -11.516465540755982, -10.478535790523063, -5.092468500323506, -2.624940753902617, -3.4400591228263147, -0.28329885583247416, 0.6028340584600576, 0.3541992643562793, 0.7983987500448586, -1.5347629755067052, -0.9238243577686447, -3.423334687145373, -5.330730801538735, -6.199966685427525, -8.349359367829178, -13.13993706168502, -18.172877889512844, -19.463339456572598, -19.17145633206305, -14.803889472879973, -8.46690417475873, -4.290037875066529, -4.522759242914214, -9.173991325522017, -13.901699319320155, -12.093932347079626, -12.163412720202729, -11.34189659764117, -9.271312596674019, -9.970210306614467, -6.504447742730492, -4.952487914177704, -2.2711476783191498, -2.1817535528735674, -1.1944454562456412, 0.7201675849918773, 0.6055347664181064, 0.2463174155868785, -0.44216816463594105, -4.490036598989215, -3.951001533544574, -4.808556027494195, -9.918988120699982, -11.300609896749796, -14.808117304550159, -17.559603971667748, -18.448554053205847, -14.21645828244568, -9.76020969593411, -7.187121772585419, -9.745926913667049, -9.706985495816374, -11.674824074811927, -9.975016590905582, -6.8677730511192445, -7.860933027990564, -5.518793465912427, -5.769042436936977, -5.733791635838758, -2.492994915565025, -0.615416004879122, -2.1830674003069297, 0.39381650586749717, 0.8872008612337506, 0.20249673004901567, 1.0627794260704018, -2.325592028637611, -2.6312884591793204, -5.110404029950053, -5.458313592598182, -7.271342979645915, -8.17435254305806, -9.016178681543861, -9.147066183116735, -11.50022231605044, -11.302797141949416, -11.53292904642574, -7.5478363115037705, -8.776440386421397, -10.119705794407462, -5.89073237849192, -2.499786420596774, -3.66069071810988, -4.502345802684871, -3.3315449171937748, -1.9112628251075963, -4.526943741393954, -2.963720229121961, 0.41338093064979164, -0.7235149395786971, 1.9650065943681039, 0.34430490050339185, 0.09001063599324774, 1.091125760264874, -1.416516264986745, -3.6797209861977374, -6.9784449198880605, -3.7694105171460057, -7.436521379274345, -6.551761228390444, -5.34941200050903, -6.821882460119406, -4.362485549563032, -5.455670670134302, -5.38112734415247, -4.550102353326093, -2.028372486930681, -1.137743654443313, 1.8162447487523197, 4.171849198524886, 2.1737101015592852, 2.25635283491465, 1.2471249398819804, -0.05280538096869518, -1.8744328114653355, -0.24702406182304176, 2.8398289971428006, 0.26201571184958994, -0.8842919919833212, 0.5633895829068782, -0.05249861016371337, -0.4877828474716549, -0.5318636719505972, -1.2485268512996175, -3.7420580396234304, -4.230227928104797, -4.342384929603477, -2.1321347988603048, -2.5201873403538357, -0.022418786725128627, -2.401865450446266, -1.2242258825745196, 1.8464460542050298, -0.013423869309322097, 3.418228190932641, 3.4458427167111307, 4.87383056898639, 4.598687600018534, 4.471564218007429, 5.276172396415722, 1.6016948748955298, 3.1485195916483133, 1.5471634920624486, 0.5742113542396188, -0.2795457332766816, -0.9527366317672379, 0.2495740242739935, 0.7412007320160241, 2.0297771919570162, -0.7484376768825044, 0.5566623221130438, 0.5737663533593942, -1.143226500272625, -0.025566962556986726, -0.5247524671736906, 1.3009131802661387, 2.3565349150622805, 0.35705747361500917, 0.9349712859979951, -1.362165847796032, -0.17584792131390312, -2.164381086296928, 2.452355191495878, 0.26574988557150564, 4.9373970295295715, 4.599217284227478, 3.9144258373071135, 3.0749536025277955, 1.753476393552699, -0.4450862827682495, 0.39087440880744856, -0.2893940755142512, 1.0798792130052175, 0.7238143755927597, 0.4519701741947191, -0.3705638932321367, -1.0428167048522234, 1.2234255552590823, 1.059606936097256, 1.317837231535739, 0.8635537750377419, 0.16806961011083862, -1.3478820564099845, 2.8582052488183987, -0.40269930549074057, 1.3281942136688025, -0.8747511842710316, 0.28110903320447367, -0.8428521294805619, -1.057579597549316, 1.3514510124878576, -0.6379722129111551, 1.4619175717438992, 0.949247036805693, 2.3484022405622356, 1.8715019007643061, 1.2636451543483789, 0.14833966073774887, -0.8421692854016443, -1.2661818548854278, 0.6757199552968695, -0.20172348282912633, -0.8575900421403844, -0.25384766118167673, 1.5851924518759049, -0.45576815343782967, -1.6497465019389472, -0.060861026614514944, 1.3658245567444476, 0.02204474582742441, -0.8112152706369239, 0.0939575191336323, 0.22953186785446564, -0.13916529165438388, 0.4842084219159381, -0.08587772820387739, -0.25479300380934294, -1.2831782026542402, -0.1542270213774111, 0.23601397061668955, -2.88321245074392, 0.2917064054480354, -1.7248261068570347, -0.9260865375441637, 0.7007840588471881, 0.8994398027733939, 0.047635757603053025, -0.5454633025144692, -0.5585680822127408, 0.04040495946624643, -2.674933134927123, 0.8558627421175041, 0.5112921271894092, 2.521257959665223, 1.3812072655626626, -0.30668975847200813, 0.465246998473149, 0.04050807121054581, 0.6697403466154415, -0.46272197686007394, -0.3719414521485128, 1.7916741453721476, -1.4854719536291638, -0.29481916256248875, 0.954907259498157, -0.8583935984446645, 1.4547168543779754, 0.09675124515990091, -2.590434866908879, -1.028107067252003, -1.2985787803337119, -2.563262850265562, 0.25190294782604317, 0.12079467456449006, -0.018482314965829954, -0.6800298795406964, 0.020475977904475872, 0.6307289331398926, 0.7032939823010691], [1.0813679196640695, 0.6637276187701757, -1.3346509737504277, 0.901241610445288, -0.5146037604138161, -0.638027342068972, 0.3324259672055157, -0.5307302607573523, -2.7717426406257704, -0.6048459799242107, -0.24157344457366228, 0.9352511610096182, 2.1105244889177333, 0.7372730540651502, -0.7567555311782926, -1.740447587270983, -1.707806062761462, 1.701683988817119, 0.9149081731259608, 1.544188452887173, -0.14767675874532615, 0.2267093166006545, 0.4325057131920311, 0.4788374696119554, 1.1150542387738005, 1.5462797985122556, 0.49608832550620785, -0.8709074978121136, -0.7844736253185537, 0.007796883657315599, 1.7310957297533311, -0.044802045483703805, 0.38144140663467624, 0.040967181624532265, -0.7110615250475182, 0.2406144628045978, 1.302189461377832, 0.13963775205355977, -0.5009003083996731, 1.7211916468278952, 0.4032075456483858, -0.17250437044037556, 0.6148859198470069, 0.2896397239309039, -0.0889108070246793, -0.49086049102551654, 0.7348627516943299, -0.38057046444158465, 1.5466007792329655, 1.0206427894619838, 0.6066544747101228, -1.0273856119989204, -0.28464326968748876, -0.5664089102233778, 0.5877593892905921, -2.253679874582247, 1.0619058054447976, -1.2154656879272459, -1.4116217693032787, 1.0911701340327293, -1.240727255500748, -0.6007195339382669, -0.38856020105942896, -0.19289254769173758, -1.5506791322879372, 0.6142099313536218, -1.86642059009173, 1.6761423760638232, 0.4163459855403469, -0.5457949980822474, 1.7577868553026557, 0.6914859156018326, 2.8899106514186412, 1.4334449169005334, 1.60659777615678, 0.721016306929635, 1.1733236943492078, 0.49547750327335904, -0.3616143212245191, -0.2783265500793737, -0.8375086033330144, -0.22674066643654875, 0.5532137915005887, -0.4054819894245266, -0.66752627046779, -0.5881152572622107, -0.739549309166145, -0.39119764609020885, -0.5758574561111796, -0.23876666610460723, 0.25470136054064507, 1.3837645986122908, 2.4015667462256522, 1.782738978094213, 1.2965859918624432, 3.5135818853676897, 2.9637542285234173, 3.382436068735903, 5.649638746254408, 4.562957394717542, 8.36933721997429, 9.607078522027951, 9.657500232558782, 6.319689261872016, 4.256383567378981, 4.17299741588278, 0.7875472702607517, 0.6569863754581219, 1.0903954380889553, 0.04543141284943299, 0.6983137040590376, -0.17344055150376578, -1.609788151209433, -0.5299918929302162, -2.323515022361078, -1.3002899342151313, 0.7809927971798695, 0.9267170224645236, 1.7165538487559848, 2.2550102291298235, 3.005841271396995, 4.976077119003909, 6.935073483887433, 5.713377354741264, 4.7059183087051695, 5.6753316885619665, 6.815585199677487, 8.20769343402755, 12.409686945276562, 12.424318985878475, 11.824840715902631, 10.27300965249084, 6.000999068110959, 2.3999622556718605, 1.3435180924523333, 0.3782389402860312, -1.5158846083836368, -0.24150617601338478, -0.3299818814476199, -0.2985667097775029, -1.739401893018523, -1.548816441196615, -1.2203926396424467, -0.4774712743367913, 1.300219385333757, -1.5900504828514503, 1.794739734773057, 2.95324384771215, 5.625269095343704, 7.872753537033379, 8.688378196301358, 8.042638235052802, 5.616032275581838, 4.191294472387827, 4.014776206681039, 7.110480525951953, 10.915318435634925, 11.510159902278026, 9.865278282010747, 7.030972585646852, 5.61642873098989, 4.767999109919705, 2.275134525132969, 1.2969363685566844, 2.2257492777694137, -0.4657175244718499, -0.00558151106317199, 0.13138238753134066, 1.5190164486634252, 0.26895407002777155, 0.24444114905066283, 1.3950647485240946, 1.5948405009289264, 1.7547142703584329, 4.542494350617005, 7.644549703511695, 6.787293755341957, 7.025060444197751, 8.184181467619487, 3.0402574948649206, -4.027155596250547, -7.898168229001832, -13.911667018461879, -13.862162536700703, -11.97289741500447, -6.699621340550153, -5.538623224189671, -1.4295206033804597, 0.11050986034043606, 1.0191110307339168, 0.1568017993332469, 1.730571815190117, -0.6414755509203917, 0.3702557228951177, 1.6175166236771865, -0.07906916289886437, -0.8975482671234876, -0.5186382630238587, -0.5660425479001858, 1.0896083450057275, 0.6132060924320972, 1.2983196656099483, 4.433209599484253, 3.0962473480191948, 4.096539137451743, 5.287790135143943, -0.8712525759052072, -5.95789761000874, -12.217880189210888, -21.77977187260206, -25.010075420745675, -27.02414705762333, -25.317411247275846, -20.163348504636872, -18.018801323389688, -11.108937207038448, -8.04218551725115, -2.959418569385674, -1.273646864028041, -1.8715122657283743, -1.9282948160426623, -2.0326235398975943, 1.401751467054734, 0.7018362401959182, -0.7271399609627701, 1.140964023464327, 0.8882354578486096, 0.1297082995222426, -1.8990484586107965, 0.541339628785802, 2.0961498417152584, 1.996142064773997, -1.8111258077260124, -1.3441451271057576, -8.074438560873881, -9.392649219933672, -14.925590333939526, -18.615668244271003, -19.22777021301926, -19.05852909144536, -18.435810104320993, -14.948141778996954, -19.31335519706655, -17.41276527542196, -11.237463955345248, -7.735103424255827, -5.607703267871484, -3.586764619085883, -1.370461403744418, -0.7199310827470595, -0.19009889634487231, 0.4959878346301201, 0.7330265016169587, -1.7911093491066699, -1.1023536781064538, 2.9084625370383295, -0.36017616155519916, 0.0845789526390722, -2.933216568716092, -4.392044039482293, -8.537649527156384, -11.820195693343132, -12.465470827788987, -10.744638635066858, -11.993333918707958, -11.860430362561877, -11.897114826564057, -12.574398751599537, -10.051876576917959, -7.036201667174021, -15.374343492452969, -15.774108930879889, -13.36831073457722, -9.71101198997666, -6.381068398648699, -6.645792634032074, -4.148258173607694, -0.16092060404251543, 0.6730604753692715, -0.6325298421666368, -0.5728629157211623, -0.09444318410002024, 0.41501947078337664, -0.6801748477657253, -1.7333717872235974, -1.3004244579865323, -5.1828587511450515, -10.831823839186386, -13.333636869920428, -12.93786984890916, -12.073332944176252, -11.214513530400659, -8.94579583617879, -8.507387437393755, -11.730067981942717, -9.121811959389431, -3.688156538046169, -4.070915065475693, -11.138522086134365, -17.023100125568575, -13.773990048160265, -10.7663852905081, -10.948456923741055, -2.948420003916426, -1.619671072561182, -0.5785757175752944, 0.4249607013102469, -0.91643981050079, 0.021734814198417236, -0.27844941891505115, -0.8157885468177671, 0.7376170549214774, -1.9195254052958077, -3.701001029049506, -9.190240364655937, -14.755997718787885, -15.537161079144052, -14.736201068010994, -9.244659509630091, -8.857452819351847, -8.16676053310202, -12.423890033276782, -19.434106934993526, -16.83015519635078, -6.56503071480112, -6.7039835883908925, -12.76971212953542, -15.15620867115625, -14.55240900792875, -11.434028579784032, -5.986297326792588, -2.103728548162145, -2.5713400914714564, -1.3119250158951279, 0.3238433264506308, -1.8969449537127665, 0.9187720877163708, -0.49863402463428524, 0.12712380166827264, -0.03241781608639488, -1.634312960637706, -6.50328158190479, -12.226061495572228, -17.289506679654085, -13.349644646425206, -9.75449665322835, -5.275294849782612, -2.10688313538589, -8.70224584418558, -19.201003054887003, -24.590777196034207, -20.94281282492656, -8.016944284958733, -9.896204021930384, -10.7475899507397, -10.880199627630939, -9.604533972900073, -6.644726105964792, -3.7762463896543896, -2.4583774326843923, 1.0323857457083392, -1.2180596875802736, -0.5771441464161103, -0.433271905975172, -1.3562262744269622, -0.5301107279000291, 0.5540626722865567, -0.5683676900794988, -4.722271468974302, -4.9250363552297385, -7.9801422222860205, -8.15092419509117, -5.5906065752639185, -1.64472196954544, 3.623301311606163, 2.3006417756485145, -7.756103941752489, -24.51822801626962, -23.355303437953413, -16.537675151613165, -6.53622997659445, -2.812473606506084, -5.211363121677995, -4.7800708117889545, -0.5568363068635848, 1.7271077764537561, 2.2698607288359, 1.6772408514686306, 3.5779368940506813, -0.2444632835798939, -1.5307539328227613, 0.5752666159937962, -0.2654975676170173, -2.000620017204778, -0.766168078882448, -1.2626176295041993, -0.33364171459821557, -5.031393038617079, -4.973465836532927, 0.6928009928047756, 4.023290745151647, 10.718824567735382, 13.117557662957466, 10.966830024997687, -3.6382638455058225, -14.857398043073404, -16.507724038218647, -4.307290048566017, 0.7127746970931702, 3.224151179654481, 4.69278219886319, 4.64360689194571, 7.367381376881311, 7.3668437725795, 2.1982686934232114, 1.9892083038046877, 1.9102952616509523, -0.5884128142040281, 0.5966775210768144, 2.078269376286065, 0.12188775378933638, -0.4116696866678232, -0.004430528951425966, 2.3782354369917704, -0.4113870548778578, -0.8743809556079521, 1.0487089970090504, 6.906162413392768, 11.899837535071853, 15.640735683327158, 17.498615343594267, 13.52515417910429, 0.8827467163427257, -5.845272712397985, 0.2582247851940279, 3.2090920655319897, 3.600757052105332, 5.543148882479074, 7.158590109377283, 7.931420531026486, 10.45510881585706, 8.826673329251348, 6.5139689378786505, 2.80543765441843, 1.1315148095583192, 0.9554516867018851, -0.8532352831916107, 0.7317558090554867, -1.5034825123989306, -0.3708688629071433, -0.4142318857121573, 0.42181694065038916, 0.10521809817085309, 1.9904039729208263, 6.349948821480918, 11.332380765078678, 13.714828275725008, 13.387430839379975, 12.861045365191819, 10.087614951192542, 4.475550593515876, 4.486248594957559, 8.388444641678559, 7.433197760288354, 2.8575409433944303, 4.644294196551018, 6.996484736408478, 10.433006599686813, 8.24780510329587, 6.74828986741178, 4.865433250699809, 2.6645208566892777, 0.7567090417312532, -0.3157102901324574, 0.7749680357835487, 1.049341429505876, 0.9469643126003144, -1.432241504178861, 0.21777863911288278, 1.7411201601516564, 2.07686645636566, 4.6026883870754425, 8.75256752046016, 11.0047252420278, 11.651202166261712, 10.70894896752836, 10.521578800943251, 9.0110532543896, 8.295503165834464, 11.28705648663776, 11.370300635082053, 7.2541591699042085, 4.23649427903248, 3.4065604938160927, 7.0317739853820225, 7.918018850433079, 7.594847706289732, 7.773138404684314, 5.850878125376301, 3.8598980846978153, 3.5538748918324403, -0.2700873208700735, 0.3186004162529486, 0.4580820248556122, 0.12743932779496125, -1.6775260170087138, 2.3072030808538275, 0.9567723638801339, 2.62602138839671, 5.874353552217407, 7.167416668012174, 9.914760369139787, 9.144486134098821, 6.8619431801749124, 9.739881555123315, 14.711551686081853, 15.813665150665026, 14.708519583258958, 12.488413100446756, 6.427129256952821, 7.809306430894445, 7.191464057287805, 7.265904646387894, 7.88713703891938, 9.209107741241041, 8.003292482660976, 4.654404543169524, 4.592591250730016, 4.629882346450004, 0.7337540825374743, -0.5795938843291919, -0.6364773222618122, 1.0453193735898574, 0.8022271470322074, -2.1688013130455905, 1.112516358145651, 3.7080584312967346, 4.018701058455974, 5.541190286576484, 4.1651156634370246, 3.975733873931448, 7.131689300431602, 13.784930919421305, 21.43148343806883, 20.74279663071042, 15.48643163902463, 11.329717219621669, 9.923562676386693, 9.495461108660642, 9.22294446704284, 7.285088325687567, 7.664318886112695, 8.111017245387387, 8.255325332685258, 6.692407627253324, 7.6235941171399215, 1.5995949370363938, 0.5134919279374334, 0.005836429379128562, 0.508752557035876, -0.42001552861915564, -0.028392734882626627, -0.07897236621923452, -0.9641844926178402, 2.854368053696801, 3.893079465399667, 0.4697869787124014, 1.7930394298412027, 0.36205487106091216, 4.9364857935794415, 13.6708111921989, 17.200236277181073, 16.796715408727184, 11.905340878621448, 10.421834454128904, 10.632751543559824, 9.552812526119455, 10.625788599680305, 8.836414767826865, 6.082274072685366, 6.990462976226589, 5.808220957696995, 5.98829038553629, 6.3496923561755985, 3.6080172040349408, 2.154934548634417, -1.454644088474805, -1.0222432818617817, -1.9075019837298302, 0.3098983053936912, -0.17903843474892792, 2.029374512960491, 3.117289695514935, 2.98329835301917, 1.7339605952125596, -1.6915907517830115, -1.0738763211040032, 2.2590852617728654, 2.683896171104618, 4.481647271758431, 4.220744832606284, 4.142205447154036, 4.085805090887261, 3.4558171040931738, 4.955929608427259, 2.4358857293003155, 0.3880471463107538, 1.744435791111895, 3.4387550446093536, 5.20375644039032, 3.3258319942133627, 3.834364212238767, 1.1376341319691152, 0.36625912825745655, 1.7293733632167292, -0.7636106843119763, 0.39475785654147744, -1.2048868882713921, 0.4288569315957316, 0.6212555435752646, 3.034204307230635, 4.322726923712718, -2.5573614087955976, -2.197113171775707, -3.8124956510902437, -6.677314557543893, -7.712619376103089, -12.362818118550823, -14.5335280981428, -12.470932831489822, -10.94904546322687, -9.371599051060054, -7.764992432327878, -7.956096974996146, -2.630890785218474, -1.5818279857189057, 1.850070463883107, 2.915884466326121, 2.639863032079582, 1.752593223132551, 1.749666809920649, -0.25167318530275096, -0.5711326314613658, -0.7616646223419635, -1.2442992747379837, -0.41649930176512073, -0.24293805951652916, -0.15146227408253848, 0.7625512114858972, 2.289697716650175, 1.2616817107571778, -1.8522929523894018, -7.7052950487833956, -10.947809733245514, -14.916668623750658, -21.268788188308136, -24.886468072746162, -27.490172007443753, -22.960594024748644, -18.93494663526574, -17.682141405288224, -13.909841582917338, -7.1149881019094, -2.496624655396955, 0.1328508635271258, 0.33834727095370226, -0.5375771460296039, 1.768905700315358, 1.4327750725920256, 0.9354622472923801, 1.2852792528979153, 0.7849577795699961, 0.9313826859045858, -0.3510815625938273, 0.4209009650575835, 1.6329179786915669, 1.3191322415241937, 1.1245412124694467, -0.628583383313599, -1.6906910808050823, -7.540076992290042, -9.62540949847785, -12.906990975336356, -16.500984309087443, -18.043087889291243, -15.959012586541506, -14.738485351240673, -13.616208105508044, -11.124152598703288, -10.665631136466088, -7.887267404803621, -4.888355080765863, -3.369924992210758, -2.870373688890943, -0.877861607380569, 0.8767281232187768, -0.7267829367816335, -1.0462512179685457, -0.10169766111064989, -0.27532363139876215, 1.1073212854788834, 0.3332089289661346, 1.5283796474988856, 0.04448941293774422, 1.9294362954629487, 0.748796104146854, -2.252399816625657, -1.4925212117387991, -4.338567150329369, -3.591954899257997, -7.216828343219728, -8.168743119595055, -8.187432832161948, -7.6878001363671515, -6.525719639596215, -4.871867861595649, -8.630633284785915, -7.531250197487443, -6.5729196572339195, -5.421227227878631, -2.439188868472211, -1.2806383805873585, -0.9155986880747748, 0.5050089608496049, 0.4552129038304035, 0.8829566475145578, 1.2461862832787343, -0.996669410257863, 1.4681352027572485, -0.13539444585822016, 0.7643525600509876, 0.08632079201093805, -3.8062130680150443, -1.0859126032910653, 1.2605365015375254, 1.339480367073237, 0.6996188056095263, -0.19160642926281854, -1.0421395520376637, -0.2912885364028852, -4.937339695057261, -3.5230830889251106, -1.8959706616958762, -2.8132816796189166, -3.1552131420366956, -1.9893540095724942, -2.9034057135421367, 0.19735958482777685, -0.9892550377265803, -0.6272198342637798, 0.10223002334191846, 0.7575385167535378, 0.502075825119751, -0.08540375730648624, -0.32526476008741856, 1.0098574800979472, 1.026244729110376, -2.2203530756268184, -0.5029122016365637, -0.8211563240891311, 0.010429527173008895, 0.09401726228012035, -0.17588692684622084, 1.9820896418888516, -0.8044117042095738, -2.5558626867422336, 1.274959283043287, 0.7848908568937161, -0.7139943725006497, -0.20059492390680053, -0.6043757642540936, -1.25327423308888, -1.5124130987424593, 0.16793659693715457, -0.47609518622362235, 1.4196830329808525, 0.4146610122777087, 0.946587351200213, -0.01962600914467205, 0.16524761003353486, -1.169523907191441, -0.7011568778008618, -0.056008279518396, -1.3699113340126219], [-1.1150939484478892, 1.5781963797915173, -0.5058520688359487, 1.152468743454725, 0.26802595258817263, -0.7013880514404007, -0.8448880512246183, -0.4862006269736167, 0.31069171202555257, 0.5504168653836156, -0.07572739107223878, -0.247588498009597, 0.16348915826075716, 0.37031991791993246, -1.6922739773030444, 0.2629888382801308, -0.687871183991262, -0.5529431245853028, 0.5458469041520713, 1.6375607620460577, -0.7178525956912774, 0.2060483846986177, 0.8225658207070938, -0.5280638469130837, -0.4281592329172361, -1.3317384200262687, 0.7221703938006206, 1.0211997856141106, 0.3114985369978999, -1.1161893768523352, 1.119968663095111, 0.23443750099906727, -0.5213680361887079, -0.21566148829809817, 0.9437373544920113, -0.13671119627832812, -0.6219913630261867, 0.3770006559045185, -0.8898552385686834, -0.7611533732823895, -0.8400397158011726, -0.6601672071472686, -0.0671133893309662, -1.4933378825426014, -0.06399493227475014, -0.377137770716689, -0.796102194708754, 1.5837580355076626, 0.41267718811817505, -0.17392828083156825, -0.27587264907040804, 0.6393268681103494, -0.3420892405217751, -0.647466651897906, 0.7029599153428016, 0.4659545236741583, -1.2604850497001667, 0.11172087061164819, 1.0564709624752553, 1.217318934399832, -0.9006812416670055, 0.0726256510507424, -0.29924453776096044, 1.5353847542571952, -0.09011801469579545, -0.159026584639972, 0.9559663624423915, 2.570527551393451, -1.1982747481737195, 2.1230472687593682, -0.17189846883325322, -0.3011341494187216, -2.3004358913042164, -3.140385403185687, -1.7599394266906427, -0.6709295496260784, -1.336805993809321, -1.4054470060190014, 0.8351712461733716, 1.7030097283259527, 0.8129538331378025, 1.3129922995146834, 0.7578220545205567, -0.627956091252331, -0.5437387663077298, 0.3920346169315703, 0.11348378994797148, 0.9313592517885518, -0.05220635947151836, -0.9722444295013719, -0.8941168349431264, -1.1964775616081307, 1.8487340905648182, 0.31098786300003856, 4.006014501921158, 1.3319779648618886, 2.2687897262096106, 1.497175354676314, 2.6297785379387073, 0.4689352370065118, -2.4277599502607274, -0.14373758721316882, -1.5965464422533855, -3.7571371602374644, -1.5458504732322427, -0.9653043906212729, -0.2900059982851596, -1.3592646138153581, -0.4463310378052987, -0.6951852156331801, -0.5052425471407502, 0.756007760043841, -1.8872927608635899, 0.9312619908420355, 0.9691113350149076, -0.7810971047077315, -1.3088152799880934, -0.5825111597015173, -0.39113817984309757, 3.358967584166983, 4.169199903740482, 4.491085985970168, 6.590889416099361, 7.654131520976119, 7.332966174753658, 7.154107351600924, 4.979804255115458, 3.295860981859073, -0.7710293235689535, -2.668756049776536, -3.6641551224923172, -4.139314639248875, -2.91863487336748, -1.4265492056482332, -4.702536642908772, -1.6627848005814805, -0.32162090192365217, 1.3593419820040327, -1.1743695661113414, -0.4102985766972825, 0.05273033263530042, -0.18547603981928204, -0.696114234113012, 2.197181126888647, 1.3111727545662462, 1.3580417248104248, 2.08969534232837, 5.048204744006777, 4.338476474639592, 5.864519437438604, 5.696499388415697, 8.011501067322053, 6.298207475444547, 7.063047676172909, 5.339216896032915, 4.682350807554668, -0.5002712350337243, -5.147586720733815, -4.460448632457059, -3.986284250449819, -6.449880266095386, -5.520752851051346, -8.186459576645522, -3.516092366765714, -2.8057581610442397, -3.1540935216348522, -0.2129096040919441, 0.4834903015441705, -1.1846856457080177, 0.39183984763393914, -0.7095929830951291, -0.9333272290841749, 0.9280440423557298, 0.8262605476757124, 3.093204219892557, 3.681675334694903, 4.032212426096724, 2.9223297827604156, 2.1062245101340644, 4.0108226455498075, 5.808071589278382, 12.32517544826807, 15.484026273229759, 18.29067983010992, 13.431440227177566, 5.095275825487054, -0.5208992515340818, -2.650536904439958, -6.3367570745288315, -7.635791670596958, -10.927398802816215, -8.803162841973778, -3.2907604604376677, -1.3053461631195176, 0.4440339390146579, 1.1597765039723495, -0.3007929054505808, -0.08820315141205848, 0.8847578060843941, 1.4647136534709853, 0.40385992955944666, 