[
    {
        "biases": [
            [
                [
                    -0.2651652109466245
                ],
                [
                    -2.0334476420812164
                ],
                [
                    -2.2651540945564097
                ],
                [
                    -4.271720558576372
                ],
                [
                    -4.2929141517900815
                ],
                [
                    0.06540715485666147
                ],
                [
                    -1.3977193087972362
                ],
                [
                    -0.11281502541530007
                ],
                [
                    -0.1047545353579146
                ],
                [
                    -2.0999460317597247
                ],
                [
                    0.907780289268754
                ],
                [
                    2.3242366425494314
                ],
                [
                    -2.3078200928177464
                ],
                [
                    1.0706832808505535
                ],
                [
                    2.4291620119391455
                ],
                [
                    -1.700383318378043
                ],
                [
                    -0.643543413200626
                ],
                [
                    -0.8967114212794973
                ],
                [
                    -0.06526895298050209
                ],
                [
                    3.7604946156448515
                ],
                [
                    0.6316378293053115
                ],
                [
                    -4.058552358196254
                ],
                [
                    -1.7366715769590542
                ],
                [
                    -0.6061881866193157
                ],
                [
                    -3.9337794794625234
                ],
                [
                    0.4834621409554613
                ],
                [
                    -0.3640444901294673
                ],
                [
                    -1.616655724987795
                ],
                [
                    -0.6405229192546205
                ],
                [
                    -2.0465275860191077
                ]
            ],
            [
                [
                    -1.3638513314967444
                ],
                [
                    -1.7948770019943574
                ],
                [
                    -7.30759321542602
                ],
                [
                    -5.003453247912632
                ],
                [
                    -2.4158169185215805
                ],
                [
                    -3.070825263113676
                ],
                [
                    -2.090747788039948
                ],
                [
                    -6.7072933052001735
                ],
                [
                    -7.061802821987855
                ],
                [
                    -5.523764228325839
                ]
            ]
        ],
        "sizes": [
            784,
            30,
            10
        ],
        "weights": [
            [
                [
                    -0.24122575319048267,
                    0.8797468856424417,
                    2.7427191511542137,
                    0.35534247639012434,
                    -0.5777990870777705,
                    -0.15341260601543075,
                    0.8615417928796497,
                    -0.6841582451751104,
                    0.47765832620852405,
                    -0.6552576848935778,
                    1.8696746822953543,
                    -0.034391218418329685,
                    -0.4912124714073756,
                    1.3361866320311895,
                    0.2700352710675273,
                    -0.4581206547428816,
                    -1.0792844855766826,
                    2.4338102569043936,
                    0.03168785555746403,
                    1.3824168201470988,
                    0.2850976021617943,
                    -0.34476286034838705,
                    1.0962936686720022,
                    1.6771188833099688,
                    1.5307310304085102,
                    0.20957400874862445,
                    0.12382324366754224,
                    -0.6561094501860109,
                    -0.46339449609807615,
                    -0.9689929321092892,
                    -1.2768708873003134,
                    -0.4673928083329468,
                    -0.3599631868637062,
                    1.9023463341359936,
                    0.946805163946478,
                    -1.5599089035345441,
                    1.6067046722180838,
                    1.5633279202649044,
                    0.07026107773048507,
                    0.38082658888810395,
                    0.0851722058377913,
                    1.052472923839287,
                    1.47112079911897,
                    0.7694245077678576,
                    0.3674973374179219,
                    -0.3881577910512588,
                    -0.6254929092730148,
                    0.07940367468324588,
                    0.5072298807021943,
                    -0.028533515946755832,
                    -0.14849604425719015,
                    -1.7706378801630163,
                    0.08924273496452907,
                    -0.799118822717937,
                    0.7521836591238542,
                    1.516888549578118,
                    0.004257987892874738,
                    1.1771339610613265,
                    2.507633100099496,
                    -1.1061465481634263,
                    0.18860469923532305,
                    -0.024816329735141127,
                    0.14701042196425831,
                    -1.1901406113748452,
                    0.4017028164353288,
                    -0.3604577071859342,
                    -0.7317771194599727,
                    -0.6436923480447111,
                    0.3913409491833668,
                    0.10806608849480748,
                    1.0033136883716534,
                    -0.31748673440910474,
                    0.37900668263846726,
                    -1.2294120733279628,
                    -1.367588598374229,
                    0.23924782643856937,
                    1.1797825948407514,
                    -0.25494669687325483,
                    0.4086477309838397,
                    -1.3740640439627352,
                    -0.41186819523537505,
                    -1.4534893953620736,
                    -1.130473416384194,
                    -0.20511528311607283,
                    -0.7328383284726763,
                    0.5838378626069721,
                    -0.7951842773407756,
                    0.7370624894492116,
                    0.9322905782355007,
                    -0.1697790926237163,
                    0.009335738224240688,
                    0.1094144571025716,
                    0.5760790491139378,
                    -1.2073899835291386,
                    0.3836826163480324,
                    -0.9113867171742084,
                    -0.12855952654470174,
                    -1.3898832904065253,
                    -1.8979188288314364,
                    -0.6221068715932238,
                    -0.9868410016604203,
                    -0.5401413379280918,
                    0.23583555821493696,
                    1.9173148905928794,
                    0.11645247896620115,
                    -1.763108780153725,
                    -0.305736670118734,
                    -0.6692506062812212,
                    0.5690025092974483,
                    -0.48741422618985963,
                    0.13154928293052348,
                    -0.5213018844086313,
                    -0.016136502547013803,
                    0.9061025850875176,
                    1.557271111065705,
                    1.5503840484383735,
                    -0.09991934400226965,
                    -0.19889378487697032,
                    0.5661362762583796,
                    -0.07836980259040337,
                    1.2092003898745154,
                    0.48232818549475864,
                    -1.8994376013131173,
                    -0.1291106239392508,
                    -1.6404639155102618,
                    -3.149748530934043,
                    -0.9878807278635415,
                    -0.21192321025445193,
                    0.49486746962520795,
                    0.009738345480362122,
                    1.2394160371067409,
                    -0.49456702600938796,
                    1.1518042459995739,
                    -0.8330661511131874,
                    -0.3513550817040419,
                    -0.8772851239365913,
                    -0.8636687868814957,
                    -0.19260773861520095,
                    0.5681330736230072,
                    -0.8109197926840185,
                    -0.9979664440126589,
                    -0.9179279995773337,
                    0.887476858534114,
                    0.6178644721463434,
                    -1.3115972689030124,
                    0.0973294173786862,
                    -1.4506536403418908,
                    -1.4670746070740537,
                    -1.4055343028911882,
                    -0.661209877280999,
                    -0.6874282159386285,
                    -0.07857112101426048,
                    -0.0017858325099363967,
                    0.09144028428130582,
                    0.7947581556669272,
                    -1.110555290260661,
                    1.7064706668218133,
                    0.41064251802168333,
                    1.6636700470505454,
                    0.07892941727100171,
                    0.1796245843596063,
                    1.4560222151931297,
                    1.285643593709594,
                    -0.622427210012672,
                    0.22898886868244447,
                    1.4997656474666825,
                    -1.5583518971894263,
                    0.5399315693100154,
                    -2.115140076998843,
                    -0.7422516670787033,
                    -0.7502720207207433,
                    -0.57453468530831,
                    -0.19372734806664493,
                    0.7515106804636257,
                    1.009032806939378,
                    0.052898005588924955,
                    -1.5587090016023355,
                    -0.008598822633301582,
                    1.747382033246344,
                    0.4359206454647838,
                    0.3161656115199094,
                    -0.6833654242236673,
                    -0.9365540269767034,
                    -1.6093309013579618,
                    -0.6227566425001129,
                    -1.2432616075093676,
                    0.6551813952873787,
                    1.1610051993319381,
                    1.2299936916171557,
                    0.5834920771133039,
                    0.1356608107059755,
                    1.183742838249125,
                    -0.4641564610508038,
                    -0.8594808392992982,
                    -1.0861974537673875,
                    0.45647069526956674,
                    -0.7685657651129683,
                    0.4584138330543214,
                    -0.688998118400104,
                    0.2649867724413693,
                    -0.2121236343268786,
                    0.09713849608162227,
                    -1.0670780221911933,
                    -0.8950302624375357,
                    -0.29276296194978313,
                    -0.04429426187460999,
                    -0.8933573627527502,
                    0.2845357389868999,
                    -0.6229522221611694,
                    1.1562977076851255,
                    -0.7606984695721526,
                    -0.8649894082180666,
                    -1.0304504972985147,
                    0.8219887608396707,
                    0.5487601265964622,
                    1.3687148196634147,
                    1.6260088417841465,
                    0.7717311445324349,
                    1.2623850978920597,
                    0.7347272380085492,
                    -1.3078895040649003,
                    0.2307638352476403,
                    0.6333666417399733,
                    -0.3204293283380193,
                    0.01316459680022965,
                    1.3042790899840961,
                    0.8126303861276848,
                    -0.3337000563702694,
                    2.1861919879450564,
                    -0.4008704688817813,
                    -0.6867957988310841,
                    -0.39969230728647576,
                    0.008779914318382508,
                    0.6556503427447158,
                    -2.1377574550186074,
                    -1.3091035545879428,
                    -2.3391774602853825,
                    0.3113571701713259,
                    -1.8584865960242942,
                    -0.3571628672616611,
                    -1.2738441679791555,
                    1.436541654546927,
                    0.49905366468283047,
                    0.24791541511289394,
                    -0.2157906417660175,
                    0.031068975318437022,
                    -0.05678157051782117,
                    0.5672481899432786,
                    -0.7852608806912609,
                    0.9797605209418896,
                    -0.05631484087159604,
                    0.4194528470630947,
                    2.1830529191841332,
                    -0.38648591242908403,
                    1.4726128666710778,
                    -1.1842559070452252,
                    0.5775522337281459,
                    -0.5695357313768814,
                    -1.6029921317726166,
                    0.7211212857499397,
                    -0.9376814720518203,
                    -1.1876851726751354,
                    0.45833829059851905,
                    0.05291439738144341,
                    -0.3095499506439371,
                    -1.1261528946591908,
                    -1.5538063628577323,
                    -2.946229353716536,
                    -0.0006780156820634774,
                    -0.6820549972446429,
                    2.7184603998859913,
                    0.738215774142198,
                    1.553911485847182,
                    1.0006236861378552,
                    0.5010254877205988,
                    -0.9809398928326022,
                    0.11345830236879886,
                    0.7062957330117258,
                    -0.565187758964127,
                    -1.6335927556440455,
                    -0.8032224504424648,
                    -0.5173197403580293,
                    1.277205328260756,
                    -1.9057635604719716,
                    0.9295407432263854,
                    0.013309123399983708,
                    0.023480173519015143,
                    -0.45884235908826887,
                    -0.2693041938525855,
                    -0.9971185130623038,
                    -0.29917873664397965,
                    -1.2828074252938877,
                    -1.5283346609806012,
                    -2.030458163266557,
                    -3.7174717303741835,
                    -1.9013462534501235,
                    0.47337175044057755,
                    0.04806721681892891,
                    0.9671074977036526,
                    0.8747019079663206,
                    -0.21242894287204564,
                    -1.0414052311411444,
                    -2.153587871874952,
                    1.077540701862384,
                    -1.5536391310279172,
                    3.0007932856782262,
                    -0.2143582844332456,
                    1.8642831214098499,
                    -0.707670737720032,
                    -0.4147373973724442,
                    0.5934152054170737,
                    -0.2886160039518527,
                    0.9183188821588201,
                    1.539894208534698,
                    -0.33346167309086755,
                    -1.460665076284221,
                    -0.5977463972504707,
                    -1.6290681439135406,
                    -0.5488931163510183,
                    -1.9858881168902083,
                    -2.2818491529540044,
                    -0.746623696895744,
                    -0.5543457641045867,
                    -1.315432133558929,
                    1.8040961777928926,
                    1.512000052177378,
                    0.5976587211310539,
                    1.0597271967224666,
                    -1.2599775789997048,
                    -0.28402537967739544,
                    0.4843745216340297,
                    -1.5900605167177966,
                    0.3500495926414541,
                    -1.5837471517706196,
                    0.6003247949191179,
                    0.5488086193909848,
                    0.8727514124439618,
                    0.29956099239936584,
                    0.15023604646969071,
                    -0.14619177112142362,
                    -0.09738705751039282,
                    1.228383035215458,
                    -2.0017945484066595,
                    -3.125160747233961,
                    -0.3974296794922299,
                    -0.908882963577208,
                    -1.0940743247064524,
                    -1.3404028263678478,
                    0.8558367806894371,
                    -1.6811176817764504,
                    -1.138007754727941,
                    -1.6297856126151515,
                    2.306560202315357,
                    -0.031500301732148885,
                    1.3121492934147525,
                    1.3379659976309335,
                    0.7254807024220672,
                    -1.5624060697170188,
                    -0.11064855260807076,
                    0.15619019179521876,
                    -0.024255725703309673,
                    1.0094289046175835,
                    -0.311706669778936,
                    0.8623346361170552,
                    -2.8710666137169296,
                    1.4962605178487547,
                    1.1988648797424855,
                    0.06748912695501588,
                    0.515417277651544,
                    1.3722320126822027,
                    0.07631500463419827,
                    -2.6161065397113394,
                    -0.3717236097039593,
                    -2.4121148932990226,
                    -0.8172817290789661,
                    -0.5359637909857611,
                    0.8866815290278237,
                    1.209198122366767,
                    -1.4999061844819876,
                    0.5951507521497582,
                    1.1475494611937544,
                    0.1875614711415934,
                    -0.01745564734455686,
                    -0.7274712538260916,
                    -0.6149340511031104,
                    -0.013500823754710328,
                    -1.3692369474455333,
                    -3.087435537456832,
                    -1.3999255422652688,
                    -0.33875723164625393,
                    1.216125310861546,
                    -1.1220433250491861,
                    -0.4100151935249133,
                    -2.030434084584255,
                    0.5191738759114032,
                    -0.5985027022952061,
                    -1.3759120337046868,
                    -0.25695829773487683,
                    -0.7302771023410854,
                    -0.5286152432506931,
                    -1.1090032021051368,
                    -0.01408875897011512,
                    0.9205950567030261,
                    -1.5515184098799053,
                    0.37847681856664056,
                    -1.3518399990242564,
                    -0.3970133922183408,
                    0.3060679481572734,
                    -0.9972136663759978,
                    1.0212935560283314,
                    0.35859365640334795,
                    -0.1877250699744874,
                    -0.9701786350788615,
                    -0.6390717577199773,
                    -1.2206688496052343,
                    1.431385996200642,
                    -0.5609519534154489,
                    1.3805302046542967,
                    0.21597174624262724,
                    1.376771202450902,
                    -0.9255877691248455,
                    0.25110680688693837,
                    -0.668271372271063,
                    -0.7049755923482238,
                    2.210237439696604,
                    0.9668276409559462,
                    -0.9895478666105479,
                    1.0790294916531586,
                    -0.4992918330159142,
                    -0.5376743252745183,
                    -0.002732462877453992,
                    1.5635460172774625,
                    1.74206797689693,
                    1.210972539793785,
                    -0.8756302301241498,
                    1.0498852672096104,
                    -0.3997146450615189,
                    -0.005759983160632938,
                    -1.0969725364515426,
                    -0.1556996712419693,
                    1.2830049783203856,
                    0.40090200360282624,
                    0.0929999664743311,
                    -1.8085369393972077,
                    -1.6274716353235394,
                    -0.9152367423114126,
                    -0.8618936511026305,
                    -0.6803694625605083,
                    -0.803401419330375,
                    0.8262343628859145,
                    -0.40010344997450725,
                    1.409210997827242,
                    1.866330051241081,
                    0.5222324594954584,
                    1.0024270050917772,
                    -0.3052445115621122,
                    0.760659485824049,
                    0.3056060964555628,
                    0.011488834309425074,
                    -0.022358589571669526,
                    1.022160444936772,
                    1.1839361294007396,
                    0.8033375513660205,
                    1.658412853696628,
                    0.10730817644566013,
                    1.0366266570376161,
                    0.9735012023836657,
                    1.4740723552362316,
                    0.3985783835501131,
                    2.59520083985377,
                    -0.7385487977464712,
                    -1.1828303492202883,
                    -0.17899547760993892,
                    -0.626243062276118,
                    -2.061259671374682,
                    0.45389062148285153,
                    -0.3632951875666959,
                    0.8576295273772914,
                    0.6381248098490468,
                    0.1025371366999259,
                    1.1769620127599043,
                    1.4235391617095556,
                    0.47689183223313175,
                    1.2381694970960897,
                    0.36430184509226404,
                    0.5271026431338817,
                    0.4390603553826059,
                    0.5661092021589735,
                    0.7720331638170751,
                    0.11686090856914719,
                    1.633518805370738,
                    0.10678364022168209,
                    1.5496327624791848,
                    0.49220415391965017,
                    0.632492120731805,
                    0.892454790053958,
                    -0.941366804336005,
                    1.2416727642240446,
                    -2.4879483365830053,
                    -0.5665084248997254,
                    -1.401656306499674,
                    0.24554974971904905,
                    0.5215212525840458,
                    -0.5527037046496037,
                    -0.48795536990602617,
                    -0.30680857508266424,
                    -1.5885010023430608,
                    0.5661446493646562,
                    2.048711580523539,
                    0.6614108840326265,
                    1.259372876615702,
                    0.25953067897981225,
                    0.1233454683455213,
                    -1.342333617589733,
                    -1.527219139940033,
                    -0.6434712102713169,
                    -0.20198800352029414,
                    0.9712414211071421,
                    1.2427118258194412,
                    1.2389665303284532,
                    0.30261628658256096,
                    0.6587903031151213,
                    2.825408742990837,
                    0.7805209926656815,
                    0.57828343413137,
                    0.07832757689894608,
                    -0.9820115917923781,
                    -0.6226858589157483,
                    0.001722686225564422,
                    2.4781845483077682,
                    0.2950884926907173,
                    -0.6945096499373828,
                    0.4338398349363883,
                    -0.7780348378371983,
                    -0.48364975237780583,
                    1.1573178062757088,
                    0.8383931722343073,
                    -0.12717477214970538,
                    0.22959903622576855,
                    -2.5218969351724603,
                    -1.179557172393954,
                    0.31634944295519707,
                    -1.9860087759933414,
                    2.108922752910528,
                    -1.5878409528086512,
                    -1.1242864152428294,
                    -0.6451279071070807,
                    1.4042311229801527,
                    1.2258694233410024,
                    1.3990299142357618,
                    0.5167531794106444,
                    -1.5244024472331699,
                    -0.5682107422376313,
                    -0.2102116786310098,
                    0.044050760251834443,
                    -2.1233589641610653,
                    -0.5395110069391224,
                    1.3136912258508395,
                    -0.022102208703939658,
                    1.1561721399341105,
                    -0.4063858749901526,
                    0.8100677556763513,
                    -0.8121047448897704,
                    -2.631600588301418,
                    1.4000392942478437,
                    1.4569177883937083,
                    1.6269977698155382,
                    -0.6521786245005754,
                    -0.7708489941743996,
                    -1.3302843596893752,
                    -0.6862653202968694,
                    -3.2901999444568206,
                    -1.9777323368938762,
                    -0.8270262495544614,
                    0.8555316117236001,
                    -0.8094329437108981,
                    -1.1050281713938594,
                    1.0847372458767275,
                    0.1667423221433661,
                    -0.13568498876253945,
                    1.294365096976115,
                    -1.5516130658261196,
                    -0.4876060315938541,
                    -0.14063614389164697,
                    1.2288170478859608,
                    -0.31521542687893195,
                    1.067116168116501,
                    0.5448010686616638,
                    0.6666144721484338,
                    1.4045142508775723,
                    3.020595656624275,
                    0.5534865989094725,
                    0.6488208143265897,
                    -0.9552701942361134,
                    -2.492407274498767,
                    0.2078283124479904,
                    -2.0925099378893393,
                    -0.952950977784966,
                    -1.6419905542926136,
                    -0.958576097404252,
                    0.38671096318404136,
                    -1.5387609599519603,
                    -0.9641923594499435,
                    -1.4258461619479377,
                    -0.1430576430712518,
                    -0.41811951042184947,
                    -0.037308454505140067,
                    -0.08988360603658634,
                    -0.757613005192927,
                    0.7203234498317038,
                    -1.4412407793503275,
                    1.214880266105632,
                    -0.10055950691898112,
                    0.6292878511617226,
                    -0.5664895268975214,
                    -1.387447555519486,
                    -1.7088345841483283,
                    0.9945267845160228,
                    -0.921342760810543,
                    -1.6077428851197133,
                    1.9057779891458866,
                    0.4946952751559332,
                    -1.2605864075888187,
                    -0.5285640761087788,
                    -0.009100230197836142,
                    -0.8417402688125,
                    0.920772621147746,
                    -1.3263648561875927,
                    -0.3556458787224874,
                    -0.9092765971446075,
                    0.41947384684913464,
                    -0.4182025251630939,
                    -0.44393994730162484,
                    0.14317239711152696,
                    1.2072715393228504,
                    1.5640038235649134,
                    1.4436197121397774,
                    1.5361805286839376,
                    1.9348060468895967,
                    0.407864401731866,
                    0.27252918669519616,
                    0.335414252279048,
                    0.17664876823974107,
                    2.3666967279365108,
                    -0.7824783831339341,
                    -1.2685355274992303,
                    1.2976781674143052,
                    0.4757650808153405,
                    -0.7032884840869217,
                    0.5759052934948882,
                    0.13293463980510822,
                    1.1600086057787418,
                    1.0916978163707685,
                    -0.6697647113390184,
                    -2.0669025210199017,
                    -0.19410685291877194,
                    -1.6243852825657104,
                    -0.4826505622121414,
                    -0.22295289647333277,
                    0.6350922110706331,
                    0.20263345148395098,
                    1.3558042532401986,
                    0.4872336169193186,
                    0.4428843453706866,
                    0.07342894156660223,
                    2.717597629898529,
                    -1.6457421698840047,
                    0.618352853673206,
                    -0.8500424290337254,
                    -2.6839864747681275,
                    -0.1387134527557273,
                    0.8662510680053962,
                    0.8365677708524243,
                    0.8115364781514561,
                    -0.4746931658078141,
                    -1.4548885476316868,
                    -0.7614239732848569,
                    -0.8242231531870765,
                    1.990629415336236,
                    -0.8410950148456127,
                    -0.562756404366555,
                    1.4153414932886232,
                    -0.13969032715036747,
                    -0.10709781969237996,
                    -0.654157887860356,
                    -0.930825711888537,
                    -0.028680718392852637,
                    -0.5949970414959646,
                    -1.1773894725766405,
                    -0.27168939860305275,
                    0.022231094211492608,
                    0.9757296700260102,
                    1.654202897538094,
                    0.15713096136096405,
                    -0.19267616967077072,
                    -0.0058975318424873,
                    -1.2043000478790191,
                    -0.042676040832700754,
                    0.33833416862640414,
                    0.14461194113154793,
                    0.7378307366941437,
                    -0.4250024857500326,
                    -0.8129428416291531,
                    -0.4620771890426206,
                    -0.16112359532941192,
                    0.23553396155172093,
                    -1.605433863602976,
                    0.18370252106417592,
                    0.885222919642015,
                    0.15075579462835023,
                    1.1852575264244594,
                    1.6142214830415553,
                    -1.0166378435927892,
                    0.07192116595786033,
                    -0.717221687304178,
                    -2.4944533341516286,
                    -0.3420333910466988,
                    1.015142915377667,
                    -0.51836564353355,
                    -1.0011113568261978,
                    -0.02571384358454827,
                    -0.8357705976481035,
                    -0.33036517751669436,
                    -0.7083481972265078,
                    0.8236130532930276,
                    1.211536927984492,
                    0.3325801386343581,
                    0.48440347367161185,
                    0.42877745506341014,
                    0.5923164915292835,
                    -0.3557487385783815,
                    1.2700072230876946,
                    -0.7136039886507249,
                    0.6149144728084953,
                    -0.13757392497228646,
                    0.3332540249484316,
                    -0.03855023724753009,
                    0.559683711239438,
                    1.309693438825967,
                    0.34719109783504987,
                    -1.171670604043231,
                    -0.5292201634097601,
                    -0.23510073337095766,
                    -0.7932826524386677,
                    -2.6726675430763125,
                    0.16742163798325715,
                    0.5959602292995967,
                    0.8006439062745664,
                    -4.077541056447113,
                    1.6544122120864353,
                    -1.271804455433481,
                    0.30866383835927835,
                    -0.4852289636794416,
                    -0.9440482070686548,
                    1.2849842380875982,
                    0.7489263195709962,
                    0.4534457739348187,
                    1.5088475943556845,
                    -0.6279770808369523,
                    0.6518044717613182,
                    0.2826739399136792,
                    -0.248705510613085,
                    0.09741829106526374,
                    -0.9918380889582112,
                    -0.20136731162490487,
                    -2.0551214313097015,
                    -0.31869288550127944,
                    -1.3433810644080102,
                    0.1610967049219884,
                    -0.6992497602609161,
                    0.1720462596801739,
                    -1.6180370105064126,
                    -0.8972667548944729,
                    -0.4181533355880034,
                    0.3126253065127862,
                    1.3572503885216327,
                    -0.05065733083861296,
                    0.9927099636269789,
                    1.6020357248803443,
                    -0.7758769715480117,
                    1.3760842112485778,
                    -0.1728252157908606,
                    -0.5274197536928832,
                    0.5452215926979613
                ],
                [
                    2.454873611390861,
                    -0.5283967400242056,
                    2.1362490193885355,
                    0.7648203023042485,
                    1.146878971005753,
                    -0.740650409594562,
                    0.8561773307433227,
                    0.36171993380652834,
                    -0.3826653858429318,
                    0.8680371553361733,
                    0.45333486380043864,
                    -0.4703101960546032,
                    1.1908189231825308,
                    -2.2296209412067403,
                    0.09265493031808836,
                    -1.6135750754898737,
                    -0.6049027041697784,
                    -0.36102499722948905,
                    -0.5207255644005888,
                    0.21956761905454186,
                    -0.25259976481807445,
                    -0.792893582590248,
                    0.7962161122834246,
                    -1.3317280299975267,
                    0.5865052313437374,
                    0.22170221470850104,
                    0.8072351244574004,
                    1.3217339996372885,
                    1.8517806214467107,
                    -0.47793347954347465,
                    0.7343752828607352,
                    -1.106985048118075,
                    -0.8544607387280828,
                    1.6033490788887217,
                    0.07541317218227561,
                    0.5419896529475089,
                    0.5945170942498261,
                    -1.7953650039089526,
                    0.33664282139213386,
                    -0.7514965961501177,
                    -1.0326122520812155,
                    0.2147576267509946,
                    0.4487229342723674,
                    0.16885885550767968,
                    -0.4396070041450165,
                    -0.9917870033364758,
                    1.0221881633952357,
                    0.5668255512423563,
                    -0.9092656171851388,
                    -0.35036942401521215,
                    -0.8187927203737657,
                    -0.8506352607507522,
                    1.2330110359271365,
                    -1.0900628164449113,
                    0.5078096223104269,
                    1.2835408459203663,
                    -1.5331521779320465,
                    -0.5052246099828226,
                    1.4817434906209297,
                    0.5552832899625693,
                    1.6168387007521918,
                    0.8814606541784077,
                    0.4571036955688631,
                    1.0880182183916627,
                    -1.1497868734418395,
                    -0.7316498460371395,
                    -0.5609080576501233,
                    -2.3536801592223737,
                    -1.0634348024015052,
                    -2.3559108066336996,
                    -1.8561229454526071,
                    0.0946891291293549,
                    -0.7794565898964231,
                    -1.5876107444391385,
                    -0.06161266661277256,
                    -1.2039892456732522,
                    -0.1448595743382812,
                    0.18161313354329306,
                    0.8178118117182281,
                    -0.21316278423524415,
                    0.42624600105182087,
                    -0.6989611559847273,
                    -1.303639812447011,
                    0.6132703788396245,
                    0.7453701173049069,
                    1.526982909493876,
                    -0.7318234342299621,
                    -0.8274682918657267,
                    -2.160479568199146,
                    0.12469786844503276,
                    0.102759283736293,
                    0.44687161652499696,
                    -0.8175462492405318,
                    -0.04715377647442919,
                    -0.48575513998055997,
                    -0.4026313971946526,
                    1.2637453148692417,
                    -1.3228443838570518,
                    0.31614025515193356,
                    0.858720971947608,
                    1.2154366858199381,
                    0.26880862135636974,
                    0.4956601564257189,
                    -0.6895779342980762,
                    1.1464287853668444,
                    -0.5854123646302339,
                    0.4099453363150466,
                    1.9942617326401284,
                    0.09787367378263258,
                    -1.7950939262105663,
                    -0.19523707536357204,
                    -1.7805770710053985,
                    -0.02053584258239628,
                    1.8338065157211816,
                    0.32944932403139826,
                    -0.25804558573498876,
                    1.388324756684958,
                    -0.9946264170134441,
                    1.9818663626443367,
                    -0.4875022322930863,
                    -1.2759729712139258,
                    -1.1797500198483653,
                    -0.5565962374974867,
                    0.04752989616088887,
                    1.2007211281697667,
                    -0.293169698499398,
                    -0.9630941100661855,
                    1.8665775926757495,
                    0.6674846922182859,
                    -0.5083182394851075,
                    0.8621753289307793,
                    0.9821490612686579,
                    -1.7613763984657087,
                    1.7368154518356151,
                    1.0470012206814137,
                    0.43645484331994716,
                    2.109120058912546,
                    0.23754783777618682,
                    0.7768528617528425,
                    -0.6424466285900943,
                    0.4452998040382017,
                    -0.3495121971104137,
                    -1.8603221069745755,
                    -1.3935515303496717,
                    -0.9715754567111453,
                    0.7825256511166159,
                    0.6062124960489895,
                    1.6605128155282975,
                    -0.09762736811395406,
                    -1.0036678134518313,
                    0.340303356187805,
                    1.1960674366309747,
                    0.6977960347843469,
                    -0.13231612552691602,
                    -1.1878299270675765,
                    0.4118289886151987,
                    -0.3176371851638247,
                    0.28693813260888307,
                    -0.09269646709595848,
                    -0.47847714268313174,
                    -1.1537797339108304,
                    1.017963579807258,
                    1.6300246107626302,
                    -0.5361663961959648,
                    0.9353771761747178,
                    0.14364922562594726,
                    -2.139187091132654,
                    1.2694431424180013,
                    0.8089816854814089,
                    0.17097099878098032,
                    1.2763686677358401,
                    0.9205917707540507,
                    0.8251970847345651,
                    0.64962318367488,
                    -0.9697667201226783,
                    -1.4302515276214907,
                    0.4971141510258142,
                    0.5174422761651534,
                    -0.24591917927006293,
                    1.17258472614881,
                    -0.19905460654032803,
                    0.40766336029658745,
                    -0.38091489079286195,
                    0.4062446927500168,
                    0.7783349909605128,
                    0.6281368920707364,
                    -1.1261185198321342,
                    0.7934950982484371,
                    -0.3037089755398539,
                    -0.8996826292610913,
                    -0.22349970990698256,
                    -0.9786289777269466,
                    2.3519229780666455,
                    1.3822278034762925,
                    -1.158658071091851,
                    0.16348848671102473,
                    1.2299522625935395,
                    0.9744726877169511,
                    0.2178400427893346,
                    -0.24909336857924427,
                    -0.09965506579614351,
                    0.21975535469975885,
                    1.8111127545826036,
                    -0.6487685244361947,
                    0.49805499722632995,
                    -0.538432607915244,
                    -0.185251164102668,
                    -0.47595136688176104,
                    1.4772100545651516,
                    1.6811559979163686,
                    -0.487977052176354,
                    0.855686330369279,
                    -1.0688978962873132,
                    -0.07185302249790287,
                    -0.7774916742544014,
                    -0.9519173927988112,
                    -0.38422371470399586,
                    1.296719869173883,
                    0.7179713208414747,
                    0.9970365518180409,
                    2.284932397423802,
                    -0.47507598432221787,
                    0.9312667963468734,
                    -0.25963495102399786,
                    -0.09190675493585602,
                    -0.1564543653921376,
                    -0.12815405431372154,
                    0.9065066512758099,
                    -0.11167150319353392,
                    0.924604300857672,
                    0.9047404289295524,
                    -1.4591215881358666,
                    0.9890289094211882,
                    -0.6968738900401837,
                    0.1054397419544736,
                    0.36739833677644324,
                    -0.43193199889416967,
                    -1.0135341887659983,
                    0.9221545144752789,
                    -1.0906401950488804,
                    -0.06407443723539395,
                    0.7096592199997065,
                    0.8770837985216804,
                    1.9770571582779353,
                    -0.24522670412119293,
                    1.2177929090352864,
                    0.3492851878473428,
                    -0.04159866304209153,
                    0.64372197702773,
                    -0.6613863669661109,
                    0.7364643869903149,
                    -0.14659243860142565,
                    -2.2486640345812967,
                    1.108244188131141,
                    1.1214993182189046,
                    1.2150292573034325,
                    1.3249037413134857,
                    -0.45980577578125637,
                    -0.6903275574510958,
                    2.2520304331202636,
                    0.4573573223170442,
                    0.32448614196663317,
                    0.9091266318287183,
                    0.8291783521889747,
                    0.4936152477091216,
                    1.8504254559116649,
                    -0.22125975150163896,
                    0.6544067106050536,
                    -0.3754256161071488,
                    -1.0344082721095456,
                    -1.3846142145012406,
                    -1.5101782472033782,
                    -1.3616362159052828,
                    -1.040363363639693,
                    -1.7519932966246532,
                    0.6747799349769749,
                    1.386635084992328,
                    0.2954754064705649,
                    0.8302971124277664,
                    -1.1429534461612927,
                    0.17169595290955372,
                    0.039415664641345195,
                    -0.34011357453863994,
                    1.7843578370056552,
                    -0.6766976354840059,
                    -0.43185639471442,
                    -0.6280089176411235,
                    -0.18960080784600805,
                    0.21110238124373676,
                    -0.5351875347243322,
                    -0.6184540102448457,
                    0.40166704881196325,
                    -0.641030069019559,
                    -0.4903414039270803,
                    -0.5475208547376507,
                    -1.050803723111255,
                    -0.49119068908476465,
                    -0.8697192645886631,
                    0.02748587993730655,
                    -0.6795129018235644,
                    -0.7953778182946669,
                    0.036440938069728986,
                    -0.5234219759957889,
                    0.7825590780864197,
                    -0.2146803716335862,
                    1.4809052630760704,
                    -1.5172239860375794,
                    2.1868490597006764,
                    -0.14318718995699098,
                    -1.53146129488834,
                    -0.9531957382270574,
                    0.4939193809967003,
                    -0.9257097044878035,
                    -1.6384882781785501,
                    -0.8820522650648471,
                    -0.40768533886895647,
                    -1.0342258410632141,
                    -1.3584019401275191,
                    -0.5093089972926212,
                    -0.03508441174463221,
                    1.2956755795056105,
                    0.28677247667641276,
                    0.8967240740072543,
                    1.4825102272417352,
                    0.09748224316938212,
                    -0.6285821352583629,
                    -0.004204227415543891,
                    -0.435964930019239,
                    -0.16424107925070106,
                    0.10178967159340475,
                    -0.6696417845664006,
                    0.3198423440899285,
                    -0.9196587774726821,
                    -0.9557019038345256,
                    0.5179403773019708,
                    0.1322089862889992,
                    -0.6946776209798066,
                    0.22795918761311004,
                    0.03982898981244381,
                    -1.2279236816065102,
                    0.19156701004590143,
                    0.4460046783146249,
                    -0.8752004521262091,
                    -0.1232268088589712,
                    0.26632424545616207,
                    -2.164500915931048,
                    0.4206884021711607,
                    1.0769955238129514,
                    1.2383964917221817,
                    1.827548083469652,
                    -0.22069713968947344,
                    0.8131629400331964,
                    0.026427170465955874,
                    0.6939559373521048,
                    0.6105070233839832,
                    -0.39878838164242114,
                    -0.06070497084587746,
                    -1.9375564425381224,
                    -0.40186618976618305,
                    -1.4119206987340813,
                    -0.4776587189039496,
                    0.5411121979451103,
                    -0.44912747842910694,
                    0.010018186449966864,
                    -0.0898509578014476,
                    -0.5427162436625724,
                    -0.3793917748161601,
                    -0.4407368692138302,
                    2.2518691049685704,
                    0.3402552758737974,
                    -0.9312641680254523,
                    0.6270390080157795,
                    0.03122542613340852,
                    0.9852944191535336,
                    2.3924826139012083,
                    0.7804634541739025,
                    0.7061901795869884,
                    0.027511244340026327,
                    1.1508917943037076,
                    0.06286145329752404,
                    0.052699087061230956,
                    0.17994550096189096,
                    0.2029023596173929,
                    0.02244228121731865,
                    0.4596775856974902,
                    -2.4987568305467027,
                    -0.30940730934095534,
                    -1.123607985820635,
                    -1.071172984300291,
                    0.6983748838443212,
                    -0.29707531821233074,
                    -0.14299430383177936,
                    0.5896284371059853,
                    1.5630819727817953,
                    0.0793147128571417,
                    -0.5587883496839985,
                    -1.7773782729876537,
                    -1.4206567567064146,
                    -0.28764233711212056,
                    1.3613996455147104,
                    1.3300449423635594,
                    -0.4351245806425862,
                    0.11527267130589092,
                    -1.218455255072362,
                    1.6537080602152994,
                    0.5930765695530323,
                    1.1786552853553738,
                    0.9837100419577078,
                    0.09786322828866038,
                    -0.4584312423250034,
                    0.3508880470704812,
                    -1.2546770582984683,
                    -1.7212819490513398,
                    0.7192470965175107,
                    -0.9359126785957063,
                    -2.006694798702578,
                    -0.45238538090778385,
                    0.3349344803849579,
                    -0.8194250747934099,
                    0.1663063029454449,
                    1.0614585163629835,
                    0.45741447252981476,
                    -0.6458569415755709,
                    3.090459688601648,
                    -2.685321354485578,
                    -2.24632921449689,
                    -3.2494588556289954,
                    -2.218053070609628,
                    -1.6998196576652558,
                    0.8241509367494015,
                    2.1629183701734873,
                    1.5666984424642636,
                    0.5106176756776268,
                    -0.7027864254315793,
                    0.26014783393327784,
                    0.028997756129065275,
                    -0.4264411725375143,
                    -0.49028542903654737,
                    -0.42432468834655757,
                    0.0062748318479395075,
                    -0.9371817349564251,
                    0.5562320724786223,
                    -0.6552796192103638,
                    0.7238863885685973,
                    -0.5050847078623936,
                    -2.306514002502024,
                    -2.24683989961204,
                    -0.34626457323732374,
                    1.53109166871965,
                    -1.561094625509682,
                    0.4512981988867112,
                    -0.8624138337653787,
                    -3.4779240457249,
                    -1.4101956631871662,
                    -4.040376135018268,
                    -5.2490046105620065,
                    -3.7987521510381734,
                    -3.2695132791426014,
                    0.2853444498212551,
                    0.8112340087318489,
                    2.3556221887987827,
                    -0.2774750948817778,
                    0.45533873107502854,
                    -0.2955553622309871,
                    -0.3984118720070189,
                    -0.2409135211074572,
                    0.6748067203971301,
                    0.8367293565345068,
                    0.9732076939940056,
                    -0.15367753071988652,
                    0.01223610976692043,
                    0.36560126083008937,
                    1.5817902583684094,
                    0.27631925669043,
                    -0.12413414464039307,
                    -0.5625140102435058,
                    -0.6531633550621905,
                    0.054770932079124424,
                    -0.9795861073548542,
                    -0.2246605490783254,
                    -1.8319941895823073,
                    -2.550243184505766,
                    -3.683652203888755,
                    -4.80992314411635,
                    -6.44247429485223,
                    -8.777263086874408,
                    -5.835429249639913,
                    -4.388476437740972,
                    -2.56943456580093,
                    -0.31471287757441685,
                    -2.0248606396364575,
                    -1.4056910930116167,
                    -2.3277471551893223,
                    -0.8119398085073586,
                    0.06499376561804449,
                    -0.22077832050230503,
                    -0.08078025721217313,
                    -0.9105054515415578,
                    -0.05126116033952207,
                    1.02978862715314,
                    -0.8625057229668417,
                    -0.8430532190734007,
                    0.5420754994457816,
                    1.167128389239374,
                    -1.582624038276529,
                    -0.4313393605942545,
                    -1.8555855544386561,
                    1.8521565289406203,
                    -0.7857818764597996,
                    0.04695628420052174,
                    -1.119266393741429,
                    -1.1624101996821536,
                    -4.418665999841754,
                    -8.686988542558687,
                    -7.774121938524195,
                    -6.120667247297816,
                    -6.9883611158401004,
                    -4.257572229805584,
                    -0.013314715833902932,
                    0.37483985404185644,
                    0.5762467274057874,
                    -1.341805159750469,
                    -0.12214825502747863,
                    0.7334797175772636,
                    -0.0508620638412037,
                    1.443565389752638,
                    -0.26043043199609844,
                    -2.0585673467858263,
                    0.0848917802501032,
                    -1.6829323087097885,
                    0.49655622446654585,
                    -0.1992066525710179,
                    -0.9024340826890708,
                    -0.9120243150452716,
                    1.2542472376223224,
                    0.1112503028989659,
                    0.7609634535510806,
                    1.7036802991372173,
                    1.0066543555538958,
                    1.1288219393310235,
                    2.1348678203711544,
                    0.712918361067434,
                    -1.8512617349273273,
                    -3.588396768606229,
                    -2.4246153553098204,
                    -3.30807948581757,
                    -0.8048382969516407,
                    -0.29607455334246174,
                    0.9549174309094384,
                    -0.024975909747301794,
                    -0.10572845080769586,
                    0.1849870261670066,
                    -1.306912891674636,
                    1.3932647022083764,
                    0.9008615076845026,
                    -1.389128278262282,
                    -1.2879670036993667,
                    -0.5610584314523313,
                    -0.29480435396930854,
                    2.4193208171507044,
                    -0.24533306402750005,
                    -1.1466464330531696,
                    -0.22634937658209758,
                    2.8470752509007915,
                    -0.0583474155170699,
                    0.18132009902464724,
                    1.9922377914559863,
                    1.4428913061481192,
                    1.2707975337100412,
                    3.2918290388148215,
                    2.9990164203597836,
                    2.2370088027945947,
                    0.586633108169745,
                    -0.46290769531772913,
                    -0.4225096593870362,
                    -1.2880266477292186,
                    0.6822516042819387,
                    -0.23738948305565027,
                    -0.4457765195059966,
                    0.7169292877332303,
                    0.2474362472201444,
                    0.09818427751393868,
                    0.02850678550378811,
                    1.0474451279213874,
                    -0.7552410608173059,
                    0.12296038366760252,
                    0.09915396389538368,
                    0.7683059824236487,
                    0.9498487432490593,
                    -0.8810340527256125,
                    -1.0010071408812244,
                    -0.4416737333182053,
                    1.1225326396584272,
                    2.354485538341927,
                    1.1156197589374532,
                    0.11199130386267536,
                    -0.1664820549177695,
                    0.0017470314236196496,
                    0.7108882771970857,
                    0.05692068005836344,
                    0.44287133761575076,
                    1.619413863252187,
                    -0.5291255743756599,
                    0.8543074432484945,
                    -0.5183822928457367,
                    -0.466397467402819,
                    0.8048501553134855,
                    -0.6732004235263441,
                    0.3164822344291883,
                    0.7947972028509309,
                    -0.7451614088412225,
                    -0.5490802495303627,
                    -1.3923815761374359,
                    0.32753512804213064,
                    -2.4804410502693535,
                    -0.6498487357963868,
                    0.22631295344006955,
                    -1.5520883423534952,
                    -1.8104280737371494,
                    -2.0855973045433087,
                    -0.5633696702707607,
                    0.8926238176889068,
                    0.7316524634894485,
                    0.08602774215935417,
                    2.5643490791527923,
                    0.3027719459223088,
                    1.676830406589668,
                    2.0669709586643963,
                    -0.19230987484068227,
                    -0.34975310166109236,
                    0.33783870265684607,
                    0.6269884745924296,
                    -0.9909315480191415,
                    -0.3305314899010658,
                    0.017931457842090187,
                    -1.1933946385243162,
                    0.03612035253470065,
                    0.6917040413618765,
                    0.17902092083686746,
                    1.208234685237043,
                    -0.5229661060315495,
                    -0.6488638039317758,
                    0.48679172837556556,
                    -0.21298355196818672,
                    0.8322408940212238,
                    1.7499648857206358,
                    -0.18894897027563431,
                    0.2871410207206033,
                    1.9886964463190888,
                    0.5717524915094,
                    -0.4123971430293907,
                    -0.2173270878420319,
                    0.14770930742664276,
                    -1.3181751875321988,
                    2.147772978305342,
                    0.2708510941717011,
                    0.7445346973629555,
                    0.847729946006522,
                    -1.1832906041379265,
                    -0.29847488909705977,
                    0.43312374436414713,
                    1.3007634102497543,
                    0.34573885679908545,
                    0.5392095369686557,
                    -0.5946698451194715,
                    -0.6262348443718131,
                    -1.5806938442012235,
                    -0.3338266929267985,
                    -1.2930612825395253,
                    -0.23138758334210272,
                    0.3823550778521244,
                    0.7045665698916531,
                    1.8268434852830675,
                    1.8931611870668394,
                    -1.7261918985951217,
                    -0.1853994271031762,
                    1.0587024720447684,
                    0.9122484546961064,
                    1.2594958240821725,
                    2.5608642567576894,
                    0.9249346987535942,
                    0.5213541719577036,
                    0.4293544800479963,
                    1.2190988269867968,
                    -0.422779004058022,
                    0.5070468971969985,
                    0.6081107796429918,
                    0.46612541904485233,
                    -0.9106647214426812,
                    0.19298721051683082,
                    -0.9548997707641356,
                    -2.0807754022628497,
                    -0.6548710884580946,
                    0.06284402072601747,
                    -0.09655117726310321,
                    2.3006871104889117,
                    0.02054508050152484,
                    1.331343334987746,
                    0.3529370167867224,
                    -1.3368505147762408,
                    -0.7005600543055508,
                    1.626869152719504,
                    1.7566642856366848,
                    -0.5931158977900983,
                    -0.4682593070258833,
                    0.2329248871982962,
                    -0.6185235406188148,
                    0.7942246011722202,
                    1.2194697730597528,
                    -0.9712627265691377,
                    2.2243386705465222,
                    1.8621886503566991,
                    -0.46481649062640734,
                    1.2726798505735981,
                    0.8970696623121492,
                    -0.4735571597714805,
                    0.549927820244884,
                    -0.3790206873921968,
                    0.24264330070548154,
                    1.377742864749625,
                    0.8181774199492802,
                    1.2896490450527711,
                    -1.694832261287635,
                    -1.8657396006008606,
                    -0.38160835031699997,
                    -0.3010244640902027,
                    0.16652285889524104,
                    -1.308800055631529,
                    -1.2583790167445696,
                    -2.9108296122741355,
                    -1.1723213818211151,
                    -0.557564138885288,
                    1.1017304251034234,
                    1.1404823815636103,
                    0.9818646801454024,
                    -0.23243200575492423,
                    0.3491276618197646,
                    1.2309996493388382,
                    0.5136102842938496,
                    -1.1800014768832365,
                    -0.030336238711612278,
                    1.2926282648180265,
                    0.09846370575013257,
                    0.653416943425372,
                    -1.1064393664021241,
                    1.7446141583829706,
                    -0.329522843787656,
                    0.41643219741102855,
                    -0.45348786126980284,
                    0.0930612898334415,
                    -1.2717295199287457,
                    1.5335908808335692,
                    0.35670528995716766,
                    0.8955695709669461,
                    -0.08121105903491652,
                    1.0445941943238226,
                    -0.33600624434927795,
                    -1.5068607145532282,
                    -1.3587436330032336,
                    0.3537888953063473,
                    1.3869691209653072,
                    0.35853136729614565,
                    -1.0145095338009649,
                    -0.2726913104605071,
                    0.6556690106016618,
                    0.7377104154646912,
                    1.7407729713681768,
                    0.17599975339581309,
                    0.2877619685856229,
                    -1.315387315481732,
                    2.711327312527916,
                    1.7175452698124545,
                    -0.3827955629464237,
                    -0.14525540267384848,
                    -0.3368225459285539,
                    -0.38883962820217105,
                    0.4495023841475467,
                    1.4803022174085603,
                    -0.37425342065068484,
                    0.10480439909847203,
                    0.06529177429474362,
                    0.15164090494491594,
                    -0.17852757899291416,
                    -0.23429262426417613
                ],
                [
                    1.3013583405948235,
                    -0.17951852491210696,
                    0.15471802644112076,
                    1.0478472938888472,
                    -0.6332418069683275,
                    2.004496599013243,
                    1.1451649810447677,
                    -0.6235322354707311,
                    0.3191647364652487,
                    -1.818418372721923,
                    0.04172934279503433,
                    0.17789147619643056,
                    1.1830823637556627,
                    1.077543339186358,
                    -0.7940521219809374,
                    -1.0154234102718498,
                    -0.2573705769119254,
                    -0.681828624259038,
                    -1.2360621243579306,
                    -1.2274152209671718,
                    0.17699458682275493,
                    -0.08930865043261065,
                    1.410928766285497,
                    1.0295183328967725,
                    -1.017236608255589,
                    -1.473936787921938,
                    0.29041106845096054,
                    1.946504344601378,
                    -0.4763836916854661,
                    -0.7776824560775761,
                    -1.6239195047123878,
                    0.10258335637256578,
                    0.38604266879910015,
                    0.7743217327348207,
                    -0.30274219419859605,
                    1.4703116103594154,
                    0.059373577596843995,
                    -0.4646020047398167,
                    1.134690836370841,
                    -0.6605381329545343,
                    0.0874567349116943,
                    -0.7466146820406423,
                    0.359781240033554,
                    0.3597359136131784,
                    -1.8426800514090034,
                    0.16350846825515958,
                    -1.8663650252314454,
                    -0.8234474016628137,
                    1.2431872877949124,
                    -0.16236590926763175,
                    0.6798792311554501,
                    -1.368178096352286,
                    0.22006533123271502,
                    0.14176123546022104,
                    -0.6037704571904754,
                    0.2562405459795002,
                    0.30530035673407413,
                    -0.746269286301262,
                    -0.011402132717103452,
                    -2.471134964208677,
                    -1.7328456613420844,
                    0.4392834157960682,
                    0.4349575653894432,
                    0.872718219686428,
                    0.14652033028623854,
                    0.8907052517066392,
                    0.08210266586473969,
                    -0.16380607819929274,
                    0.25794333211720755,
                    -0.7324080514727178,
                    -0.8392884892957394,
                    0.6563247252044468,
                    -1.3434359347279425,
                    2.340601327877651,
                    0.10952906985652908,
                    -0.49189942118805674,
                    -0.3736822061982387,
                    -0.0429689227701829,
                    0.11666857603469023,
                    0.1778532858422403,
                    -0.11408212139007724,
                    -1.4824244271779068,
                    -1.3179863589954304,
                    -0.5910113336119961,
                    0.03210849357225835,
                    1.8839506463513576,
                    0.5838381581181137,
                    -0.8328207800263125,
                    0.4560922220968178,
                    0.29355484085826666,
                    0.16236440997702278,
                    0.9338603343564178,
                    1.2079375078384602,
                    0.38051269764357204,
                    -1.2956240550983698,
                    0.6434749054614689,
                    -0.008717700598497623,
                    0.8140999631378444,
                    1.5550821097566663,
                    -1.4441405728468637,
                    -2.252214838129181,
                    0.4456181665628344,
                    -1.302807126532549,
                    -0.6442813473970832,
                    -0.8568203601907931,
                    -0.5833538654246015,
                    1.179573397802769,
                    -0.8304462096086067,
                    -0.009840093158229285,
                    -0.731694809044464,
                    1.6880482182301368,
                    1.027179635845612,
                    1.6563641692585318,
                    -1.35664741389493,
                    0.321946943052679,
                    0.6292796223890175,
                    -1.036461337143289,
                    -1.4797855662620796,
                    0.8762791011284539,
                    -0.5337849595105091,
                    -0.3026840021810098,
                    0.112674201610445,
                    -0.5909199657135488,
                    0.6805315522463091,
                    -1.6144362226104987,
                    0.3394147206090706,
                    -0.2799390261481892,
                    -1.1852257527225365,
                    -1.078174422900463,
                    -1.0286972104956857,
                    -0.4485240868756726,
                    -1.0546426204120583,
                    1.5778098965489908,
                    -0.42492952694375125,
                    0.3682242366621375,
                    -0.14405938790000722,
                    0.0783206743217363,
                    0.7469446737829389,
                    0.7831666674876082,
                    0.029399446473380178,
                    -0.8470851903317042,
                    0.3125436495819169,
                    -1.391485415572057,
                    0.45731539961206974,
                    0.829795385612686,
                    -1.5043978205000668,
                    0.5155641338195688,
                    -0.17946854097527112,
                    -0.884855183479993,
                    -0.4553509283040966,
                    -1.2499038351612861,
                    0.9251965098830995,
                    -0.4392598235730605,
                    0.6973084873610298,
                    0.20635524250859086,
                    -1.478584671237033,
                    -0.54212826081844,
                    -0.09074928248681428,
                    -0.1800604600638736,
                    -1.7015086847945486,
                    -0.49188866022955363,
                    -0.2938630198332165,
                    -0.7160716473859661,
                    0.5344748363785518,
                    -0.9455238342666316,
                    0.4337733846726442,
                    0.8164828599969193,
                    0.2890530765291435,
                    1.7999948880984777,
                    -0.08908033427950464,
                    -0.6491414014534406,
                    -0.9368211079096637,
                    0.0683241430704407,
                    0.7606057507942983,
                    1.0181871560308804,
                    0.8050537317923787,
                    -0.7763393783110242,
                    1.2862712119619382,
                    -1.3614056188513113,
                    0.5707011624429618,
                    0.3077767341317713,
                    -1.228415507578852,
                    -0.9318785630788059,
                    -1.5476718839212722,
                    0.08301913835888255,
                    -1.9902999848955216,
                    -0.8827442471268282,
                    -3.263042199060814,
                    -0.5550847872405876,
                    -0.5728353872063977,
                    -1.3040160039624142,
                    -1.1184548539444397,
                    -0.9951196586232205,
                    0.2635823624655163,
                    -0.0503808155208983,
                    1.8719346735768534,
                    -0.21663166262756323,
                    0.8864335926234844,
                    0.6137027212034151,
                    0.5444938913790217,
                    -0.40256651878045635,
                    -0.8720823857055497,
                    0.41902180410907763,
                    1.0111927899079496,
                    1.240302967560172,
                    -0.14414565871962384,
                    -0.2900092367979704,
                    -0.7418938704949051,
                    -1.5506469112269314,
                    0.3988439930476882,
                    0.37595891484772787,
                    -0.3608550180273242,
                    1.3187248687635285,
                    -0.4160203134867245,
                    -1.0494698284040882,
                    -1.8537630206146885,
                    -1.542225016020145,
                    -0.9110990300384009,
                    1.079170750320066,
                    -1.7414787824372315,
                    -0.5742666307064862,
                    -0.4080348209726747,
                    -2.26533525703568,
                    -1.1030012545454677,
                    -0.9230418978996802,
                    -0.06293441650116068,
                    0.3776833744718449,
                    0.9581647364544325,
                    0.933045282906322,
                    1.080923055295132,
                    1.161595921811968,
                    0.4648656733672492,
                    0.12551863135295818,
                    -0.23847938093045123,
                    -0.6516496565503321,
                    -0.5375457648461965,
                    -0.8244638844655963,
                    0.46400515015287946,
                    0.390319819684528,
                    -0.11131882742964726,
                    -0.9711493588355227,
                    0.21716098041824483,
                    -0.16228828857652747,
                    -1.1070738480930298,
                    0.9848024226274923,
                    -0.2437686642685467,
                    -2.3092298515706875,
                    -1.1889764951269775,
                    -1.4235135387015552,
                    -0.5996113232328026,
                    -0.07371584212029246,
                    -0.8490776315434462,
                    -1.1732821519717995,
                    0.14976881990353427,
                    0.10141411177962611,
                    -0.8111642762492705,
                    -0.3183383905622688,
                    0.7611354957057266,
                    -1.4494453880289573,
                    -0.580985130283549,
                    -0.8435582814627888,
                    0.9567784226342821,
                    2.5647265598426108,
                    -0.5058355840024766,
                    -0.504498412288832,
                    -1.67279822697963,
                    -1.0191245178503874,
                    0.1481730138985241,
                    -0.4660034732580965,
                    -1.0292152725964745,
                    0.7780453977813409,
                    -0.13868866175298944,
                    -0.9688023584826709,
                    -2.335796866229286,
                    -0.8553215313580885,
                    -1.3466535988103108,
                    -0.790013903209675,
                    -1.3665451465364753,
                    -1.0533249331119763,
                    -0.6501282360741123,
                    -0.02127416552382967,
                    0.26674470515813536,
                    -1.342421237101779,
                    0.5172494504271113,
                    0.1756736700441862,
                    1.988717369277367,
                    -0.3878929847036627,
                    1.175772640922038,
                    -0.9050957108736312,
                    -1.2671483400280672,
                    1.236687787372715,
                    1.346836011766668,
                    -1.2607446125625166,
                    1.279627645958707,
                    -0.6901117948646726,
                    -0.14801262362391412,
                    -0.9059301737098349,
                    1.4619443575359392,
                    1.4299565064252753,
                    1.7152148585322833,
                    -0.5867230823943709,
                    0.1400757475416499,
                    -0.9789099542998525,
                    -2.6430724111966835,
                    -2.7992759170645223,
                    -1.1820184810614571,
                    0.19573761230286507,
                    -1.8520091440839623,
                    0.5588673429180049,
                    -1.0345282086209853,
                    -0.7719271452960427,
                    -0.36783658848316625,
                    -0.13620908254290984,
                    -0.4056479132152997,
                    -0.12655995834818892,
                    0.937535380022909,
                    -1.4170221613744574,
                    0.12491161116117577,
                    0.17861101870632112,
                    0.6284759941845741,
                    -1.791126988099683,
                    0.15899079548880007,
                    -3.5358421343527526,
                    -0.43931729729437125,
                    -0.4975255604587676,
                    1.034287078629757,
                    0.937447454967861,
                    1.5457305424951182,
                    -0.26075776091938985,
                    0.5037470389232948,
                    0.6919502242488752,
                    -0.04888345613365809,
                    -0.6142107905092141,
                    -2.1334343352476517,
                    0.41184215270360336,
                    1.3874682671654759,
                    0.30062437929613756,
                    0.8411616339063718,
                    -0.9775562498103759,
                    1.0663538060906517,
                    2.638876657487779,
                    1.4274100519553636,
                    -0.24783554001677577,
                    -0.5987007674849156,
                    0.4772792422257844,
                    -0.5020429660326655,
                    -0.671100186106936,
                    -0.6259698142371194,
                    -0.33686646382822955,
                    -1.908749063825831,
                    -3.195022166583958,
                    -1.1763011833918844,
                    -0.13954710082892458,
                    0.1634649677518894,
                    0.6955968043132135,
                    3.4164175053679777,
                    -0.21718876463258124,
                    1.9946369340453827,
                    -0.7378636292796632,
                    0.973560312029003,
                    -2.1183651095936593,
                    -0.6963330727349433,
                    -1.4367037410015768,
                    0.4429104778868203,
                    1.4817999758341118,
                    0.7709336820822287,
                    -0.5863112022385939,
                    1.0957898590815016,
                    1.1560210539244071,
                    0.8513112100005387,
                    0.5464593297458894,
                    -0.8869097033661933,
                    1.4973141587700667,
                    0.4278084923895038,
                    -0.41492814463948713,
                    -2.2994875165686137,
                    0.4603920963672185,
                    -0.6303129036031936,
                    -2.0708482849162144,
                    -0.8452570360079381,
                    -1.2625748790287834,
                    0.051949294433602355,
                    1.6069076672353066,
                    0.5842486524605391,
                    0.43867504353099795,
                    1.8520998381729297,
                    1.0400986060901845,
                    -0.7542681704924873,
                    0.5485996855607148,
                    0.02108009981488778,
                    -0.5447608491704389,
                    -0.5726212072174076,
                    1.0564331085920147,
                    0.6833718360551693,
                    1.12680354519086,
                    0.9604436072586834,
                    1.2111606892481295,
                    1.2877213025212706,
                    -0.32647711074966174,
                    0.24186400309185344,
                    0.4458064073013367,
                    -0.3200674729167949,
                    0.12014168969876811,
                    0.9656929390928349,
                    0.7684587058988211,
                    -1.933227697666095,
                    -0.25461436057417913,
                    -1.6273151738288019,
                    -0.7631693085588136,
                    2.447841197345219,
                    1.4978477299255857,
                    2.712920135481442,
                    0.7088176177661594,
                    0.310385807863391,
                    0.5553430599308712,
                    1.7640158407826474,
                    0.6761929963992117,
                    0.5797391762318158,
                    -0.6634072809205039,
                    -0.8220534276750533,
                    0.5200744616449572,
                    -1.9620189255420994,
                    1.2221682608598474,
                    -0.5910752890051199,
                    1.1081751425988517,
                    0.44853949167617485,
                    1.1771463847623689,
                    1.033179978597516,
                    0.5931839530390132,
                    0.7719253106392204,
                    2.4059143040762314,
                    0.3327506828820576,
                    -2.421633594798586,
                    -2.7041378979191584,
                    -3.2086319742401384,
                    2.193406216010513,
                    0.08037736688773346,
                    2.3082254485841567,
                    2.5923438028050683,
                    0.5547048469965028,
                    -0.12386065069285225,
                    -0.3422095495400342,
                    -0.8824141066682653,
                    0.5202312901066336,
                    0.610152442421465,
                    -0.540991405398311,
                    0.2413783259052938,
                    1.3368004318633364,
                    -0.29315041763192257,
                    -0.15938936794520955,
                    -2.070368191295509,
                    -0.7809002609317793,
                    -0.41684842880804307,
                    1.6026183970143109,
                    -0.0074079527648306664,
                    0.6247936062372549,
                    0.45053754424580167,
                    0.8482281395224728,
                    1.7304408890825596,
                    -0.1424964934756171,
                    -0.9725624144225399,
                    -1.7996818884791697,
                    -1.102460465979805,
                    1.727722474727573,
                    3.178165944038809,
                    2.588804377123375,
                    0.7497751226332677,
                    1.1001541716647854,
                    1.5227600426135637,
                    1.3425798665198525,
                    0.9052012691086652,
                    -0.1670294473337858,
                    0.5256204783819728,
                    0.3100336513813204,
                    -0.20002665036061065,
                    1.672516419237871,
                    0.09216854241552092,
                    0.2573782162573959,
                    -1.4531959449601646,
                    -0.7711819422125816,
                    -0.9082403743903477,
                    1.346363949761153,
                    1.4480820757108008,
                    1.4587285294918846,
                    -1.2555018498207424,
                    1.2807267487187455,
                    1.6245304315849731,
                    -0.3331451947978231,
                    -0.21854873610733566,
                    -2.494525499966562,
                    4.620737881512136,
                    3.2608943376804413,
                    1.832379606634997,
                    0.6321724961662369,
                    0.4351551858743653,
                    1.0136625894452265,
                    0.39409442529988004,
                    0.23733557355988497,
                    -0.14495893997853082,
                    -0.31346330491098506,
                    0.8855362299233901,
                    1.7926543930295014,
                    1.204384282427442,
                    0.750176550043035,
                    0.3441692372151383,
                    0.7561344911075897,
                    0.02359926566362814,
                    -1.3225327647810925,
                    1.6682472722247657,
                    0.8862044558953563,
                    0.062230878793355614,
                    0.043642432014390546,
                    0.17207351742760676,
                    -1.156795934758165,
                    0.8059149588963872,
                    -1.3570547303873215,
                    -0.3953437628537232,
                    -0.3803703784789423,
                    0.1850395613142661,
                    0.6010068794639205,
                    1.9405797513024694,
                    1.3525061578811606,
                    -0.2457339259367538,
                    -0.5881443723198202,
                    -0.031592747827343885,
                    0.014029060260652756,
                    1.2318636730533084,
                    -0.6192101240738194,
                    0.2641958611806717,
                    1.2852898130260537,
                    -1.4393863594734804,
                    0.9354839288362143,
                    0.01778038530884344,
                    0.6089575887028578,
                    -1.161287302886683,
                    -0.7624762634875466,
                    -0.8788316408310465,
                    0.4226237219232054,
                    -0.6949449264455302,
                    0.12463675133835485,
                    -0.726537845390819,
                    -0.8476113516225156,
                    -0.06888368479882634,
                    -0.3748564742687964,
                    -1.5817318212192382,
                    -1.2071279779084885,
                    2.253115521102753,
                    1.169375169529972,
                    -0.2022257704793714,
                    -0.9350776428466472,
                    -0.44426332330588564,
                    1.0077215187786226,
                    -0.9571370175028238,
                    -1.5787505786650449,
                    0.01033260287973791,
                    -0.46456903982643694,
                    -0.3437950913685856,
                    -1.4433268031641624,
                    0.8633355917781391,
                    -1.1462255380575248,
                    -1.255393748975696,
                    0.7760711416888275,
                    -0.15826478553160186,
                    0.3367399014703745,
                    -0.4466680255599885,
                    0.5265092789162035,
                    0.5544474892893548,
                    0.2971650305142107,
                    -0.334663917750875,
                    -0.4780858981369067,
                    0.48859590373651296,
                    -0.3576667104647514,
                    -0.12728007210304085,
                    -0.8495605769420589,
                    0.957699441823629,
                    -0.5058123828374345,
                    -1.8935615401542443,
                    -1.087961897250156,
                    0.15514568044992463,
                    0.4211630751516896,
                    -1.6408236278529618,
                    0.7000169488890876,
                    0.051859651106165805,
                    -1.1777523003859256,
                    0.9123550929849653,
                    0.036359693852706466,
                    -0.7823317496059952,
                    0.5195731786623415,
                    -0.9239275628376051,
                    2.7555508754382685,
                    -0.47390493342447165,
                    -0.1792981016664695,
                    1.271765745379945,
                    0.9167540903246837,
                    0.9498562721734599,
                    -0.9638822098651576,
                    0.49902960919354883,
                    -2.340950790246706,
                    1.3800791417707896,
                    -0.28265462254434254,
                    0.1103358603179441,
                    -0.5503269711155452,
                    -1.0852756112257755,
                    -0.4749154433450931,
                    -1.2950056571196973,
                    -1.1352120973270583,
                    -1.0747302122400073,
                    -1.3681455919856498,
                    -0.0067467015786699495,
                    -0.5178882223638401,
                    0.20130794988760758,
                    -0.09141946163896943,
                    0.5008080169980726,
                    1.7351990022623474,
                    -0.4736678112360435,
                    -0.5844509321335785,
                    -1.8799807914564586,
                    1.0172524132371425,
                    2.167884732973931,
                    0.13585816141016122,
                    -0.750785304365085,
                    0.3101757472904542,
                    -1.0859786134130682,
                    -0.5678931887867726,
                    0.4350356737453283,
                    -1.161202871411567,
                    0.28149981814255665,
                    -1.2962871681097679,
                    -0.1830325068665037,
                    1.138131787787417,
                    -0.7595439904415763,
                    -0.1114241615636522,
                    -1.6820550620928956,
                    1.0207422203930492,
                    -2.0771940833632963,
                    -0.8260047082064373,
                    -1.146659987501572,
                    0.3647289604279444,
                    0.7206541623475984,
                    -1.4195326445046743,
                    0.7590984374823281,
                    1.989311752403917,
                    -2.252492721728666,
                    1.2157427189167562,
                    -2.723237637374506,
                    0.4638722852854651,
                    -2.0376840800850577,
                    -1.9589310620787006,
                    -0.6742733160510405,
                    -0.49669151635387854,
                    -2.3061897851520152,
                    1.6005420440318947,
                    -0.6780750828570908,
                    0.5156633247884255,
                    -0.3221926269725605,
                    0.790728100898217,
                    -0.060426351167323616,
                    0.4812836144397668,
                    0.4188730277049805,
                    -0.29204268233591263,
                    -1.960946744665777,
                    -0.1651825885603902,
                    0.30697663964564964,
                    -1.5326331943386255,
                    -0.6741685065538952,
                    -0.9873083884144022,
                    1.8103428247015174,
                    -0.4105405205375475,
                    -1.6117489041820412,
                    -1.5451698911924945,
                    -0.2460679242985356,
                    0.09317395317086005,
                    -0.4090875581166114,
                    -1.4127841243379746,
                    0.6634041505476406,
                    -0.24508964302051187,
                    1.9678279896160566,
                    -1.9801123874777784,
                    -1.6658191627917802,
                    -0.3653462481596414,
                    0.6295853287575419,
                    -1.9505563561967088,
                    -0.3813907262314526,
                    -1.491407541113063,
                    -0.5805616190527947,
                    0.3337270220259963,
                    -1.6899557394062958,
                    -1.2997297740342166,
                    -0.9183258912114743,
                    -0.4078862739958549,
                    -1.0532610614369922,
                    -1.1956384307134218,
                    -2.203811019468818,
                    -0.9730868684429976,
                    -1.3083646467096302,
                    -0.13353585750503208,
                    -0.1672672161190477,
                    1.1541667614141264,
                    -0.9658434186921578,
                    0.23935542025301593,
                    -0.9059845506364355,
                    -0.9698350112290427,
                    0.23289437817761732,
                    -0.42732311820815166,
                    -0.6650187358027999,
                    -0.533625729352711,
                    -1.0756646219620052,
                    0.0809319177788583,
                    0.30400124154000496,
                    -0.027536072173788208,
                    -0.5964650253873383,
                    -0.0007838967795696051,
                    0.03083929930272348,
                    -1.206263193554449,
                    1.2861072083453287,
                    -0.4166829640514434,
                    -0.1969725719792678,
                    1.943461425734687,
                    0.5815942636023473,
                    0.1556023040822368,
                    -0.03161564456869586,
                    0.5571107364996858,
                    -0.22698718751035865,
                    0.6882702186467553,
                    -1.0416178272998706,
                    -0.07054154740881641,
                    -0.8112650017601112,
                    0.09922560084138013,
                    0.8420162839776041,
                    -0.5116453184496965,
                    -0.35376380829682785,
                    -0.2866567121449817,
                    -0.7369273501344767,
                    0.8372033939307608,
                    0.17549295933605893,
                    -0.13039707532543657,
                    0.901498005924465,
                    1.3982806531459486,
                    1.706194382766893,
                    0.7538462066877905,
                    -1.356379825723232,
                    0.16766302942571903,
                    0.07998679759970305,
                    0.9900405754651541,
                    0.6111626877635989,
                    -0.5504453287764296,
                    0.534746557408608,
                    0.4221988461739583,
                    0.47202725599445733,
                    -2.1742764156409904,
                    0.15972459240496464,
                    -1.1782753165174218,
                    -0.9582679925730321,
                    2.2187376690243474,
                    1.4380086412272954,
                    0.5046948946635321,
                    -0.4726061283743786,
                    -0.57620376810381,
                    1.8903691275986094,
                    -0.3334315746373189,
                    -0.1465379607898472,
                    0.1508051608786857,
                    -0.6523569282858621,
                    -0.6435402282414875,
                    -0.8791934528819219,
                    0.9989349468867986,
                    -1.0533559046360466,
                    1.9805249820409236,
                    0.7560805826061356,
                    -1.1145086851721544,
                    1.2498935134330764,
                    1.6049544678243426,
                    0.2360985177217907,
                    -0.664468173203859,
                    0.4920846228666941,
                    -0.5021461791891532,
                    -0.6950014034049725,
                    -0.36715556032942054,
                    -0.7546802499418601,
                    -1.3261342278110158,
                    -1.1229892915894972,
                    1.3145553093529483,
                    0.5312335233555079,
                    0.25937032717322134
                ],
                [
                    -1.961464970784979,
                    -0.4664429507456204,
                    -0.07673809496789678,
                    1.2136866760223026,
                    1.425285023125484,
                    -1.0567452264454238,
                    1.3730930755522663,
                    -0.6822803395605638,
                    -0.4771689714559074,
                    0.1502739933584811,
                    0.8749486597786278,
                    0.4180125688478769,
                    0.9326823836719317,
                    0.7108718125906963,
                    2.411410746199478,
                    0.6549703926354,
                    0.5674475968774161,
                    -0.8013918627936926,
                    0.5874689671648512,
                    0.24929365038251866,
                    -1.7089771192953411,
                    -0.3063816978317766,
                    -0.34736211370173725,
                    -2.057882421695629,
                    1.16625034854332,
                    -0.8461838338442381,
                    -0.06605443745888151,
